{"learner":{"attributes":{"scikit_learn":"{\"_estimator_type\": \"classifier\"}"},"feature_names":["NumDots","SubdomainLevel","PathLevel","UrlLength","NumDash","NumDashInHostname","AtSymbol","TildeSymbol","NumUnderscore","NumPercent","NumQueryComponents","NumAmpersand","NumHash","NumNumericChars","NoHttps","RandomString","IpAddress","DomainInSubdomains","DomainInPaths","HttpsInHostname","HostnameLength","PathLength","QueryLength","DoubleSlashInPath","NumSensitiveWords","EmbeddedBrandName","PctExtHyperlinks","PctExtResourceUrls","ExtFavicon","InsecureForms","RelativeFormAction","ExtFormAction","AbnormalFormAction","PctNullSelfRedirectHyperlinks","FrequentDomainNameMismatch","FakeLinkInStatusBar","RightClickDisabled","PopUpWindow","SubmitInfoToEmail","IframeOrFrame","MissingTitle","ImagesOnlyInForm","SubdomainLevelRT","UrlLengthRT","PctExtResourceUrlsRT","AbnormalExtFormActionR","ExtMetaScriptLinkRT","PctExtNullSelfRedirectHyperlinksRT"],"feature_types":["int","int","int","int","int","int","int","int","int","int","int","int","int","int","int","int","int","int","int","int","int","int","int","int","int","int","float","float","int","int","int","int","int","float","int","int","int","int","int","int","int","int","int","int","int","int","int","int"],"gradient_booster":{"model":{"cats":{"enc":[],"feature_segments":[],"sorted_idx":[]},"gbtree_model_param":{"num_parallel_tree":"1","num_trees":"300"},"iteration_indptr":[0,1,2,3,4,5,6,7,8,9,10,11,12,13,14,15,16,17,18,19,20,21,22,23,24,25,26,27,28,29,30,31,32,33,34,35,36,37,38,39,40,41,42,43,44,45,46,47,48,49,50,51,52,53,54,55,56,57,58,59,60,61,62,63,64,65,66,67,68,69,70,71,72,73,74,75,76,77,78,79,80,81,82,83,84,85,86,87,88,89,90,91,92,93,94,95,96,97,98,99,100,101,102,103,104,105,106,107,108,109,110,111,112,113,114,115,116,117,118,119,120,121,122,123,124,125,126,127,128,129,130,131,132,133,134,135,136,137,138,139,140,141,142,143,144,145,146,147,148,149,150,151,152,153,154,155,156,157,158,159,160,161,162,163,164,165,166,167,168,169,170,171,172,173,174,175,176,177,178,179,180,181,182,183,184,185,186,187,188,189,190,191,192,193,194,195,196,197,198,199,200,201,202,203,204,205,206,207,208,209,210,211,212,213,214,215,216,217,218,219,220,221,222,223,224,225,226,227,228,229,230,231,232,233,234,235,236,237,238,239,240,241,242,243,244,245,246,247,248,249,250,251,252,253,254,255,256,257,258,259,260,261,262,263,264,265,266,267,268,269,270,271,272,273,274,275,276,277,278,279,280,281,282,283,284,285,286,287,288,289,290,291,292,293,294,295,296,297,298,299,300],"tree_info":[0,0,0,0,0,0,0,0,0,0,0,0,0,0,0,0,0,0,0,0,0,0,0,0,0,0,0,0,0,0,0,0,0,0,0,0,0,0,0,0,0,0,0,0,0,0,0,0,0,0,0,0,0,0,0,0,0,0,0,0,0,0,0,0,0,0,0,0,0,0,0,0,0,0,0,0,0,0,0,0,0,0,0,0,0,0,0,0,0,0,0,0,0,0,0,0,0,0,0,0,0,0,0,0,0,0,0,0,0,0,0,0,0,0,0,0,0,0,0,0,0,0,0,0,0,0,0,0,0,0,0,0,0,0,0,0,0,0,0,0,0,0,0,0,0,0,0,0,0,0,0,0,0,0,0,0,0,0,0,0,0,0,0,0,0,0,0,0,0,0,0,0,0,0,0,0,0,0,0,0,0,0,0,0,0,0,0,0,0,0,0,0,0,0,0,0,0,0,0,0,0,0,0,0,0,0,0,0,0,0,0,0,0,0,0,0,0,0,0,0,0,0,0,0,0,0,0,0,0,0,0,0,0,0,0,0,0,0,0,0,0,0,0,0,0,0,0,0,0,0,0,0,0,0,0,0,0,0,0,0,0,0,0,0,0,0,0,0,0,0,0,0,0,0,0,0,0,0,0,0,0,0,0,0,0,0,0,0,0,0,0,0,0,0,0,0,0,0,0,0],"trees":[{"base_weights":[1.1292347E-2,1.8497047E0,-7.4695593E-1,1.8901099E0,1.2765957E-1,1.2222222E0,-1.7712748E0,1.0285715E0,1.9201825E0,1.2592592E0,-1.1666666E0,-5.9907836E-1,1.5146067E0,-1.8907945E0,1.1333333E0,1.8181819E-1,-2.6666668E-1,1.9268571E0,-5E-2,1.4782609E-1,-0E0,-1.3684212E-1,-2.2222223E-2,-1.2516129E0,9.69697E-1,1.682035E0,-1.1604939E0,-1.8961039E0,-0E0,1.5744681E0,-4E-1,-1.2380953E0,1.3846155E-1,5.714286E-1,1.9333333E0,8E-1,-1.5107914E0,1.6981132E0,-1.5294118E-1,1.7415186E0,-1.6666667E-1,-1.4133333E0,1.20000005E-1,-1.9219288E0,-1.5833334E0,-5E-2,5E-2,-1E-1,1.7333333E0,5.263158E-1,-1.4666668E-1,-2.2222223E-2,-1.5E-1,-2.2222223E-2,1.1111112E-1,1.6465117E-1,1.968607E-1,-1E-1,1.5E-1,-1.8181819E-1,-3.0303031E-2,1.7551021E-1,5E-2,-1.1764706E-2,1.8152814E-1,-1.605634E-1,1E-1,-2.2222223E-2,-1.9248466E-1,3.636364E-2,-1.7477478E-1,2.2222223E-2,1.8117647E-1,1.4285715E-1,-1.1111112E-1],"categories":[],"categories_nodes":[],"categories_segments":[],"categories_sizes":[],"default_left":[0,0,0,0,0,0,0,0,0,0,0,0,0,0,0,0,0,0,0,0,0,0,0,0,0,0,0,0,0,0,0,0,0,0,0,0,0,0,0,0,0,0,0,0,0,0,0,0,0,0,0,0,0,0,0,0,0,0,0,0,0,0,0,0,0,0,0,0,0,0,0,0,0,0,0],"id":0,"left_children":[1,3,5,7,9,11,13,15,17,19,21,23,25,27,29,-1,31,33,-1,-1,-1,-1,-1,35,37,39,41,43,45,47,49,51,-1,53,55,57,59,61,-1,63,-1,65,-1,67,69,-1,-1,-1,71,73,-1,-1,-1,-1,-1,-1,-1,-1,-1,-1,-1,-1,-1,-1,-1,-1,-1,-1,-1,-1,-1,-1,-1,-1,-1],"loss_changes":[2.2233745E3,3.2165405E1,2.279937E3,9.8133545E0,1.867888E1,2.0699268E2,2.601682E2,1.8382683E1,8.046997E0,1.8615131E0,8.3918095E-1,5.674833E1,1.5143439E2,7.170166E0,2.0921986E1,0E0,1.3745054E1,2.7355957E0,0E0,0E0,0E0,0E0,0E0,2.1813316E1,3.263357E1,6.5548706E1,1.3781729E1,2.710205E0,1E0,1.1344681E1,8.182456E0,1.0634918E0,0E0,1.7460316E0,1.159668E0,7.8E0,1.2350121E1,2.71492E-2,0E0,4.265747E1,0E0,1.0307228E1,0E0,2.8120117E0,1.9842133E1,0E0,0E0,0E0,2.264061E0,8.604846E0,0E0,0E0,0E0,0E0,0E0,0E0,0E0,0E0,0E0,0E0,0E0,0E0,0E0,0E0,0E0,0E0,0E0,0E0,0E0,0E0,0E0,0E0,0E0,0E0,0E0],"parents":[2147483647,0,0,1,1,2,2,3,3,4,4,5,5,6,6,7,7,8,8,9,9,10,10,11,11,12,12,13,13,14,14,16,16,17,17,23,23,24,24,25,25,26,26,27,27,28,28,29,29,30,30,31,31,33,33,34,34,35,35,36,36,37,37,39,39,41,41,43,43,44,44,48,48,49,49],"right_children":[2,4,6,8,10,12,14,16,18,20,22,24,26,28,30,-1,32,34,-1,-1,-1,-1,-1,36,38,40,42,44,46,48,50,52,-1,54,56,58,60,62,-1,64,-1,66,-1,68,70,-1,-1,-1,72,74,-1,-1,-1,-1,-1,-1,-1,-1,-1,-1,-1,-1,-1,-1,-1,-1,-1,-1,-1,-1,-1,-1,-1,-1,-1],"split_conditions":[0E0,1E0,3.6101083E-3,1E0,1.5E-1,1E0,1E0,1E0,1E0,7E0,8.333333E-1,1E0,1.8018018E-3,1.99E2,1E0,1.8181819E-1,1E0,1E0,-5E-2,1.4782609E-1,-0E0,-1.3684212E-1,-2.2222223E-2,1E0,1E0,1E0,2.929293E-1,3.75E-1,4E0,6.741573E-2,1E0,4.8E1,1.3846155E-1,1E0,1E0,2E0,1E0,5.9E1,-1.5294118E-1,2E0,-1.6666667E-1,2.7E1,1.20000005E-1,1E0,1.1235955E-2,-5E-2,5E-2,-1E-1,2E0,0E0,-1.4666668E-1,-2.2222223E-2,-1.5E-1,-2.2222223E-2,1.1111112E-1,1.6465117E-1,1.968607E-1,-1E-1,1.5E-1,-1.8181819E-1,-3.0303031E-2,1.7551021E-1,5E-2,-1.1764706E-2,1.8152814E-1,-1.605634E-1,1E-1,-2.2222223E-2,-1.9248466E-1,3.636364E-2,-1.7477478E-1,2.2222223E-2,1.8117647E-1,1.4285715E-1,-1.1111112E-1],"split_indices":[47,38,26,29,27,29,34,14,37,13,26,34,33,3,39,0,31,2,0,0,0,0,0,14,39,38,33,26,2,26,30,3,0,34,45,2,39,21,0,2,0,13,0,14,27,0,0,0,2,46,0,0,0,0,0,0,0,0,0,0,0,0,0,0,0,0,0,0,0,0,0,0,0,0,0],"split_type":[0,0,0,0,0,0,0,0,0,0,0,0,0,0,0,0,0,0,0,0,0,0,0,0,0,0,0,0,0,0,0,0,0,0,0,0,0,0,0,0,0,0,0,0,0,0,0,0,0,0,0,0,0,0,0,0,0,0,0,0,0,0,0,0,0,0,0,0,0,0,0,0,0,0,0],"sum_hessian":[1.593E3,4.6475E2,1.12825E3,4.54E2,1.075E1,3.86E2,7.4225E2,1.65E1,4.375E2,5.75E0,5E0,5.325E1,3.3275E2,7.1325E2,2.9E1,1E1,6.5E0,4.365E2,1E0,4.75E0,1E0,3.75E0,1.25E0,3.775E1,1.55E1,3.135E2,1.925E1,7.1125E2,2E0,2.25E1,6.5E0,4.25E0,2.25E0,2.5E0,4.34E2,4E0,3.375E1,1.225E1,3.25E0,3.085E2,5E0,1.775E1,1.5E0,6.5225E2,5.9E1,1E0,1E0,1E0,2.15E1,3.75E0,2.75E0,1.25E0,3E0,1.25E0,1.25E0,5.275E1,3.8125E2,1E0,3E0,2.65E1,7.25E0,1.125E1,1E0,1.175E1,2.9675E2,1.675E1,1E0,1.25E0,6.51E2,4.5E0,5.45E1,1.25E0,2.025E1,2.5E0,1.25E0],"tree_param":{"num_deleted":"0","num_feature":"48","num_nodes":"75","size_leaf_vector":"1"}},{"base_weights":[6.0418705E-3,1.3065503E0,-6.4368623E-1,-7.394854E-1,1.4245842E0,-1.425648E0,1.6409401E0,-1.1395721E0,1.230099E0,1.4894311E0,-1.3103845E0,-1.6099746E0,1.4634761E0,1.711652E0,-4.4726026E-1,-1.3279113E0,1.10946216E-1,1.4846824E-1,2.0106062E-2,1.5449024E0,-5.623132E-1,-1.6744281E-1,7.7635236E-2,-1.7167938E0,9.249213E-1,2.9519972E-1,1.6452883E0,1.7388357E0,-1.3791159E-1,-1.1272695E0,1.2615292E-1,-1.4596349E0,2.0775367E-2,1.6554857E0,7.6076174E-1,8.725218E-1,-1.7017704E-1,-1.7339416E0,-8.234504E-1,1.4086221E0,-6.3898605E-1,-1.3409652E-1,1.4640419E-1,1.6866046E-1,1.7121876E-2,1.7526461E0,5.597956E-1,6.9180444E-2,-1.16069496E-1,-4.188591E-3,-1.5131097E-1,-1.5687782E-1,1.5878183E-3,1.6823629E-1,-1.7592402E-2,-3.4615893E-2,1.20894685E-1,-7.427931E-3,1.1563199E-1,-1.7606345E-1,-1.4211302E-1,-1.5543318E-1,5.88875E-2,2.4126654E-2,1.7429402E-1,-1.4460303E-1,1.3670677E-2,1.7593858E-1,4.861043E-2,-4.4744793E-2,1.2126688E-1],"categories":[],"categories_nodes":[],"categories_segments":[],"categories_sizes":[],"default_left":[0,0,0,0,0,0,0,0,0,0,0,0,0,0,0,0,0,0,0,0,0,0,0,0,0,0,0,0,0,0,0,0,0,0,0,0,0,0,0,0,0,0,0,0,0,0,0,0,0,0,0,0,0,0,0,0,0,0,0,0,0,0,0,0,0,0,0,0,0,0,0],"id":1,"left_children":[1,3,5,7,9,11,13,15,17,19,21,23,25,27,29,31,-1,-1,-1,33,35,-1,-1,37,39,41,43,45,47,49,-1,51,-1,53,55,57,-1,59,61,63,65,-1,-1,-1,-1,67,69,-1,-1,-1,-1,-1,-1,-1,-1,-1,-1,-1,-1,-1,-1,-1,-1,-1,-1,-1,-1,-1,-1,-1,-1],"loss_changes":[1.3472408E3,1.2933478E2,1.9017964E3,2.4750614E1,9.1081604E1,4.2447656E2,4.0867737E1,1.2124962E1,1.1380548E0,5.679419E1,1.05463085E1,2.0347473E2,9.723053E0,1.3457642E1,1.2679632E1,5.0890236E0,0E0,0E0,0E0,4.0250977E1,2.3831865E1,0E0,0E0,9.5373535E0,2.4197748E1,1.6671705E1,2.2308502E0,3.2387695E0,4.820692E0,3.0600672E0,0E0,3.5540466E0,0E0,2.0905396E1,3.068914E1,1.889174E0,0E0,3.3547363E0,1.6796696E1,8.881458E0,5.182851E0,0E0,0E0,0E0,0E0,1.3273315E0,3.4819293E0,0E0,0E0,0E0,0E0,0E0,0E0,0E0,0E0,0E0,0E0,0E0,0E0,0E0,0E0,0E0,0E0,0E0,0E0,0E0,0E0,0E0,0E0,0E0,0E0],"parents":[2147483647,0,0,1,1,2,2,3,3,4,4,5,5,6,6,7,7,8,8,9,9,10,10,11,11,12,12,13,13,14,14,15,15,19,19,20,20,23,23,24,24,25,25,26,26,27,27,28,28,29,29,31,31,33,33,34,34,35,35,37,37,38,38,39,39,40,40,45,45,46,46],"right_children":[2,4,6,8,10,12,14,16,18,20,22,24,26,28,30,32,-1,-1,-1,34,36,-1,-1,38,40,42,44,46,48,50,-1,52,-1,54,56,58,-1,60,62,64,66,-1,-1,-1,-1,68,70,-1,-1,-1,-1,-1,-1,-1,-1,-1,-1,-1,-1,-1,-1,-1,-1,-1,-1,-1,-1,-1,-1,-1,-1],"split_conditions":[3.6101083E-3,2E0,7.058824E-1,1E0,1E0,3.3333334E-1,4E0,9.3333334E-1,4.2E1,5E0,2.7E1,1E0,5E-1,1E0,1E0,1E0,1.10946216E-1,1.4846824E-1,2.0106062E-2,8E0,1.14285715E-1,-1.6744281E-1,7.7635236E-2,1E0,5.1898736E-1,3.2098764E-1,1E0,8.3E1,1.375E-1,2.0512821E-1,1.2615292E-1,1E0,2.0775367E-2,2E0,8.9E1,1.08E2,-1.7017704E-1,3.75E-1,3E0,3.548387E-1,8.4210527E-1,-1.3409652E-1,1.4640419E-1,1.6866046E-1,1.7121876E-2,3E0,3.6E1,6.9180444E-2,-1.16069496E-1,-4.188591E-3,-1.5131097E-1,-1.5687782E-1,1.5878183E-3,1.6823629E-1,-1.7592402E-2,-3.4615893E-2,1.20894685E-1,-7.427931E-3,1.1563199E-1,-1.7606345E-1,-1.4211302E-1,-1.5543318E-1,5.88875E-2,2.4126654E-2,1.7429402E-1,-1.4460303E-1,1.3670677E-2,1.7593858E-1,4.861043E-2,-4.4744793E-2,1.2126688E-1],"split_indices":[26,2,26,34,38,33,4,33,3,4,20,34,33,38,5,40,0,0,0,22,27,0,0,24,26,26,32,22,27,27,0,24,0,8,3,3,0,26,2,26,27,0,0,0,0,8,21,0,0,0,0,0,0,0,0,0,0,0,0,0,0,0,0,0,0,0,0,0,0,0,0],"split_type":[0,0,0,0,0,0,0,0,0,0,0,0,0,0,0,0,0,0,0,0,0,0,0,0,0,0,0,0,0,0,0,0,0,0,0,0,0,0,0,0,0,0,0,0,0,0,0,0,0,0,0,0,0,0,0,0,0,0,0,0,0,0,0,0,0,0,0,0,0,0,0],"sum_hessian":[1.5924161E3,5.301822E2,1.0622339E3,2.8630323E1,5.0155188E2,7.916507E2,2.7058322E2,2.4146748E1,4.483576E0,4.9038022E2,1.117166E1,7.445885E2,4.7062157E1,2.6189508E2,8.688141E0,2.2658812E1,1.4879363E0,3.2393713E0,1.2442044E0,4.7771173E2,1.266847E1,9.680436E0,1.4912242E0,7.147904E2,2.9798132E1,6.6910343E0,4.0371124E1,2.5816068E2,3.7344158E0,6.4583607E0,2.2297804E0,2.0914366E1,1.7444463E0,4.1769516E2,6.001658E1,5.711129E0,6.9573417E0,7.004051E2,1.4385327E1,2.2834837E1,6.963294E0,2.726781E0,3.9642532E0,3.9130173E1,1.2409515E0,2.546909E2,3.4697587E0,2.2404742E0,1.4939414E0,1.984484E0,4.4738765E0,1.9415033E1,1.4993328E0,4.117341E2,5.9610653E0,1.7362526E1,4.2654053E1,1.4873456E0,4.2237835E0,6.410727E2,5.9332355E1,9.41335E0,4.9719768E0,5.4670205E0,1.7367817E1,2.989151E0,3.974143E0,2.5295573E2,1.7351651E0,1.4882915E0,1.9814672E0],"tree_param":{"num_deleted":"0","num_feature":"48","num_nodes":"71","size_leaf_vector":"1"}},{"base_weights":[-3.5824014E-3,1.5539814E0,-6.490956E-1,1.5805777E0,2.656838E-1,9.9138504E-1,-1.4814602E0,1.5922177E0,6.927825E-2,1.1443837E0,-1.16489284E-1,1.1578248E0,-1.1726893E0,-1.587634E0,1.1192923E0,1.5980821E0,-9.125537E-3,9.6689E-2,-5.7183832E-2,1.332052E-1,1.5834536E-2,1.415423E0,1.7519785E-1,-1.3967022E0,9.202096E-2,-1.6041912E0,-6.272635E-1,-1.0649308E-1,1.255255E0,1.208174E0,1.6299921E0,1.4752756E0,-1.4347398E-1,-4.971811E-1,1.1250788E0,-1.5225859E0,5.5166658E-2,-1.6282332E0,-1.2444655E0,7.6647E-1,-1.3426641E0,1.4742848E0,-3.2664004E-1,1.3438927E-1,-9.973896E-2,1.6357918E-1,9.305733E-2,1.6345143E-1,9.781761E-2,1.217312E-1,-7.615991E-2,1.4037885E-1,-1.4524028E-1,-1.6638307E-1,-4.113373E-2,-1.3070832E-1,-1.6563196E-1,-6.0490906E-2,-1.5522991E-1,1.2556584E-1,-2.823305E-2,-1.4920823E-1,-4.331177E-2,1.5779518E-1,-2.6726697E-2,-1.16292395E-1,7.198756E-2],"categories":[],"categories_nodes":[],"categories_segments":[],"categories_sizes":[],"default_left":[0,0,0,0,0,0,0,0,0,0,0,0,0,0,0,0,0,0,0,0,0,0,0,0,0,0,0,0,0,0,0,0,0,0,0,0,0,0,0,0,0,0,0,0,0,0,0,0,0,0,0,0,0,0,0,0,0,0,0,0,0,0,0,0,0,0,0],"id":2,"left_children":[1,3,5,7,9,11,13,15,17,19,-1,21,23,25,27,29,-1,-1,-1,-1,-1,31,33,35,-1,37,39,-1,41,43,45,47,-1,49,51,53,-1,55,57,59,61,63,65,-1,-1,-1,-1,-1,-1,-1,-1,-1,-1,-1,-1,-1,-1,-1,-1,-1,-1,-1,-1,-1,-1,-1,-1],"loss_changes":[1.5587771E3,1.5144775E1,1.4981602E3,7.7158203E0,1.4394377E1,1.344639E2,2.0267603E2,4.503784E0,3.111291E0,1.0735388E0,0E0,8.6739655E1,1.3891754E1,1.0115112E1,9.985527E0,3.5045166E0,0E0,0E0,0E0,0E0,0E0,4.8540466E1,4.687636E1,6.894722E0,0E0,3.914795E0,1.4485797E1,0E0,1.0139908E1,1.2459507E1,1.15722656E-1,1.9538818E1,0E0,2.0491587E1,2.3851295E1,2.996914E0,0E0,3.6136475E0,8.368706E0,3.0297985E0,6.151695E-1,4.875084E0,4.5206885E0,0E0,0E0,0E0,0E0,0E0,0E0,0E0,0E0,0E0,0E0,0E0,0E0,0E0,0E0,0E0,0E0,0E0,0E0,0E0,0E0,0E0,0E0,0E0,0E0],"parents":[2147483647,0,0,1,1,2,2,3,3,4,4,5,5,6,6,7,7,8,8,9,9,11,11,12,12,13,13,14,14,15,15,21,21,22,22,23,23,25,25,26,26,28,28,29,29,30,30,31,31,33,33,34,34,35,35,37,37,38,38,39,39,40,40,41,41,42,42],"right_children":[2,4,6,8,10,12,14,16,18,20,-1,22,24,26,28,30,-1,-1,-1,-1,-1,32,34,36,-1,38,40,-1,42,44,46,48,-1,50,52,54,-1,56,58,60,62,64,66,-1,-1,-1,-1,-1,-1,-1,-1,-1,-1,-1,-1,-1,-1,-1,-1,-1,-1,-1,-1,-1,-1,-1,-1],"split_conditions":[0E0,1E0,3.6101083E-3,6.7E1,2.3529412E-1,1.8018018E-3,1E0,4E0,1.3E1,6E0,-1.16489284E-1,1E0,2.929293E-1,1E0,6.741573E-2,2E0,-9.125537E-3,9.6689E-2,-5.7183832E-2,1.332052E-1,1.5834536E-2,1E0,1.21E2,2.1E1,9.202096E-2,1E0,1E0,-1.0649308E-1,6.126761E-1,1E0,1.36E2,4.195804E-2,-1.4347398E-1,0E0,1E0,1E0,5.5166658E-2,2.7522936E-2,1.8018018E-3,1.8018018E-3,1E0,1E0,9.3421054E-1,1.3438927E-1,-9.973896E-2,1.6357918E-1,9.305733E-2,1.6345143E-1,9.781761E-2,1.217312E-1,-7.615991E-2,1.4037885E-1,-1.4524028E-1,-1.6638307E-1,-4.113373E-2,-1.3070832E-1,-1.6563196E-1,-6.0490906E-2,-1.5522991E-1,1.2556584E-1,-2.823305E-2,-1.4920823E-1,-4.331177E-2,1.5779518E-1,-2.6726697E-2,-1.16292395E-1,7.198756E-2],"split_indices":[47,38,26,22,27,33,34,8,20,13,0,10,33,24,26,0,0,0,0,0,0,38,3,13,0,27,10,0,26,31,3,27,0,46,9,28,0,27,33,33,15,31,27,0,0,0,0,0,0,0,0,0,0,0,0,0,0,0,0,0,0,0,0,0,0,0,0],"split_type":[0,0,0,0,0,0,0,0,0,0,0,0,0,0,0,0,0,0,0,0,0,0,0,0,0,0,0,0,0,0,0,0,0,0,0,0,0,0,0,0,0,0,0,0,0,0,0,0,0,0,0,0,0,0,0,0,0,0,0,0,0,0,0,0,0,0,0],"sum_hessian":[1.5483583E3,4.532648E2,1.0950935E3,4.4387436E2,9.390453E0,3.6854633E2,7.265472E2,4.4042865E2,3.4457045E0,5.941235E0,3.4492176E0,3.426574E2,2.588892E1,6.984241E2,2.8123089E1,4.389503E2,1.4783577E0,1.2239488E0,2.2217555E0,4.6964645E0,1.2447708E0,2.711375E2,7.151989E1,2.368631E1,2.20261E0,6.85928E2,1.2496124E1,1.2476261E0,2.6875463E1,3.6145924E1,4.0280438E2,2.660333E2,5.104227E0,4.2156055E1,2.9363832E1,2.2454088E1,1.2322222E0,6.396512E2,4.6276768E1,4.2143674E0,8.281757E0,2.3666603E1,3.2088606E0,3.4418663E1,1.727262E0,3.9816394E2,4.6404395E0,1.9975615E2,6.6277145E1,5.1512794E0,3.7004776E1,2.6909414E1,2.454419E0,1.9480736E1,2.9733522E0,5.5265522E1,5.843857E2,1.6000051E1,3.0276718E1,2.739404E0,1.4749633E0,6.5631137E0,1.7186431E0,2.242564E1,1.2409614E0,1.7217524E0,1.4871082E0],"tree_param":{"num_deleted":"0","num_feature":"48","num_nodes":"67","size_leaf_vector":"1"}},{"base_weights":[-1.4960308E-2,1.4297997E0,-6.0304314E-1,1.4681209E0,-1.8101133E-1,9.282327E-1,-1.1241016E0,1.4861622E0,-9.684364E-1,-9.320211E-1,1.1485808E-1,-5.5985886E-1,1.2281584E0,-7.667916E-1,-1.5089184E0,5.336721E-1,1.5222591E0,-1.1922675E-1,-2.8473496E-2,-1.3008387E-1,2.0995809E-2,-9.6894115E-1,6.2611014E-1,3.8529417E-1,1.4701116E0,-1.0056175E0,3.9844283E-1,-1.5219457E0,-2.0046309E-2,1.4418939E-1,-7.112787E-1,1.5343907E0,2.2137319E-1,9.498794E-2,-1.1539136E0,1.1583966E0,-1.2600163E-1,1.1162367E0,-1.0018517E0,1.4973358E0,-4.9830653E-2,3.6641914E-1,-1.2070284E0,1.384074E0,-5.8908576E-1,-1.5351713E0,-7.1828616E-1,-8.2352795E-2,9.5620714E-2,-1.5810536E-1,1.10182755E-1,1.2729454E-1,1.5669005E-1,-7.850606E-2,1.1609032E-1,-1.452847E-1,2.8908549E-2,1.276444E-1,1.39411045E-2,1.3914113E-1,-8.7889194E-2,6.1051685E-2,-1.3151051E-1,1.5191774E-1,-3.1178785E-2,7.990699E-2,-1.0564738E-1,-1.2959936E-1,-2.2934256E-2,1.4848234E-1,-8.691792E-2,4.270565E-2,-1.2860112E-1,-1.5566021E-1,-1.1358944E-1,-1.3288899E-1,8.199434E-2],"categories":[],"categories_nodes":[],"categories_segments":[],"categories_sizes":[],"default_left":[0,0,0,0,0,0,0,0,0,0,0,0,0,0,0,0,0,0,0,0,0,0,0,0,0,0,0,0,0,0,0,0,0,0,0,0,0,0,0,0,0,0,0,0,0,0,0,0,0,0,0,0,0,0,0,0,0,0,0,0,0,0,0,0,0,0,0,0,0,0,0,0,0,0,0,0,0],"id":3,"left_children":[1,3,5,7,9,11,13,15,17,19,-1,21,23,25,27,29,31,-1,-1,-1,-1,33,35,37,39,41,43,45,47,-1,49,51,53,-1,55,57,-1,59,61,63,-1,65,67,69,71,73,75,-1,-1,-1,-1,-1,-1,-1,-1,-1,-1,-1,-1,-1,-1,-1,-1,-1,-1,-1,-1,-1,-1,-1,-1,-1,-1,-1,-1,-1,-1],"loss_changes":[1.2780483E3,2.7127563E1,8.5402106E2,2.0128662E1,1.2056592E1,1.2206976E2,1.0857886E2,1.3711609E1,2.3139381E-1,3.466905E0,0E0,2.3072765E1,4.5656677E1,1.1613141E2,7.402405E0,2.020694E1,6.0751343E0,0E0,0E0,0E0,0E0,1.3455761E1,1.399276E1,5.374899E1,1.0164276E1,9.589462E1,7.0364006E1,2.9349976E0,4.18968E0,0E0,1.4082496E1,1.4268188E0,5.5675125E0,0E0,1.4315289E1,1.0558605E0,0E0,2.0145985E1,1.0116661E1,7.333374E0,0E0,2.8535843E1,2.5921234E1,9.476631E0,2.632249E1,1.4223022E0,8.631436E0,0E0,0E0,0E0,0E0,0E0,0E0,0E0,0E0,0E0,0E0,0E0,0E0,0E0,0E0,0E0,0E0,0E0,0E0,0E0,0E0,0E0,0E0,0E0,0E0,0E0,0E0,0E0,0E0,0E0,0E0],"parents":[2147483647,0,0,1,1,2,2,3,3,4,4,5,5,6,6,7,7,8,8,9,9,11,11,12,12,13,13,14,14,15,15,16,16,21,21,22,22,23,23,24,24,25,25,26,26,27,27,28,28,30,30,31,31,32,32,34,34,35,35,37,37,38,38,39,39,41,41,42,42,43,43,44,44,45,45,46,46],"right_children":[2,4,6,8,10,12,14,16,18,20,-1,22,24,26,28,30,32,-1,-1,-1,-1,34,36,38,40,42,44,46,48,-1,50,52,54,-1,56,58,-1,60,62,64,-1,66,68,70,72,74,76,-1,-1,-1,-1,-1,-1,-1,-1,-1,-1,-1,-1,-1,-1,-1,-1,-1,-1,-1,-1,-1,-1,-1,-1,-1,-1,-1,-1,-1,-1],"split_conditions":[0E0,1E0,1.1235955E-2,7E0,1.2195122E-1,1E0,1.8018018E-3,1E0,6.137931E-1,1E0,1.1485808E-1,1E0,3E0,1E0,5E0,1E0,7.2E1,-1.1922675E-1,-2.8473496E-2,-1.3008387E-1,2.0995809E-2,1E0,1.4E1,8E0,1E0,0E0,6.7241377E-1,1.9E1,4.6E-1,1.4418939E-1,1E0,1E0,6E0,9.498794E-2,1E0,1E0,-1.2600163E-1,1.8018018E-3,7E0,6E0,-4.9830653E-2,1E0,1.8E1,1E0,4E0,1.6666667E-1,8.125E-1,-8.2352795E-2,9.5620714E-2,-1.5810536E-1,1.10182755E-1,1.2729454E-1,1.5669005E-1,-7.850606E-2,1.1609032E-1,-1.452847E-1,2.8908549E-2,1.276444E-1,1.39411045E-2,1.3914113E-1,-8.7889194E-2,6.1051685E-2,-1.3151051E-1,1.5191774E-1,-3.1178785E-2,7.990699E-2,-1.0564738E-1,-1.2959936E-1,-2.2934256E-2,1.4848234E-1,-8.691792E-2,4.270565E-2,-1.2860112E-1,-1.5566021E-1,-1.1358944E-1,-1.3288899E-1,8.199434E-2],"split_indices":[47,38,27,4,33,29,33,29,27,28,0,40,2,28,0,14,22,0,0,0,0,14,22,22,38,46,27,13,27,0,31,45,0,0,39,8,0,33,21,4,0,39,13,38,13,33,27,0,0,0,0,0,0,0,0,0,0,0,0,0,0,0,0,0,0,0,0,0,0,0,0,0,0,0,0,0,0],"split_type":[0,0,0,0,0,0,0,0,0,0,0,0,0,0,0,0,0,0,0,0,0,0,0,0,0,0,0,0,0,0,0,0,0,0,0,0,0,0,0,0,0,0,0,0,0,0,0,0,0,0,0,0,0,0,0,0,0,0,0,0,0,0,0,0,0,0,0,0,0,0,0,0,0,0,0,0,0],"sum_hessian":[1.5022113E3,4.3416193E2,1.0680493E3,4.2415973E2,1.0002192E1,2.7096414E2,7.970852E2,4.2142935E2,2.7303836E0,6.582906E0,3.4192858E0,4.5306694E1,2.2565744E2,4.1486633E2,3.822189E2,1.5964271E1,4.0546506E2,1.4965869E0,1.2337968E0,4.870729E0,1.7121767E0,3.3822964E1,1.148373E1,5.0907925E1,1.7474951E2,3.4441263E2,7.045369E1,3.7888156E2,3.3373396E0,9.138975E0,6.8252964E0,4.0154095E2,3.9241302E0,2.6102433E0,3.1212719E1,9.257102E0,2.2266276E0,3.346774E1,1.7440187E1,1.7260167E2,2.1478443E0,4.3982033E1,3.004306E2,3.505975E1,3.539394E1,3.7185193E2,7.029634E0,1.9164733E0,1.4208663E0,4.6990676E0,2.1262286E0,4.884902E1,3.5269193E2,1.9739872E0,1.9501431E0,2.5850647E1,5.3620725E0,8.069595E0,1.1875067E0,2.9677166E1,3.7905736E0,2.682735E0,1.4757452E1,1.7070107E2,1.9005994E0,3.4063087E1,9.918946E0,2.7507443E2,2.5356155E1,3.388566E1,1.174092E0,1.4556813E1,2.0837128E1,3.501588E2,2.1693106E1,5.129542E0,1.9000918E0],"tree_param":{"num_deleted":"0","num_feature":"48","num_nodes":"77","size_leaf_vector":"1"}},{"base_weights":[-5.766662E-4,1.3563193E0,-5.58056E-1,1.3819641E0,-1.1058115E0,8.9986944E-1,-1.3053403E0,1.4088881E0,7.06574E-1,-2.3017514E-2,-1.3334788E-1,1.0937848E0,9.587965E-2,-1.4049239E0,9.3709636E-1,5.242126E-2,1.4208531E0,-1.1186095E0,1.4041458E-1,1.1811223E0,-4.136262E-1,-4.169251E-1,1.1378103E0,-1.4187684E0,-6.1792135E-1,1.3453163E0,-4.9537843E-1,-4.895862E-2,6.319618E-2,1.4265229E0,-2.4157083E-2,-1.4285396E-1,-1.3462913E-2,-1.0595195E0,1.2272432E0,-1.001562E0,9.206473E-1,-6.6500807E-1,1.1679741E0,1.3192405E0,-1.13996305E-1,-1.2857883E0,-1.4800897E0,4.7918192E-1,-1.2833141E0,4.4236127E-1,1.4305195E-1,3.4214172E-1,-1.3091378E-1,1.4365694E-1,6.490161E-2,-1.2881176E-1,-9.559334E-3,1.2618361E-1,-2.699849E-2,-1.3565126E-1,9.382607E-2,-1.9185117E-2,1.264623E-1,-9.016418E-2,1.0842468E-1,1.3749288E-1,1.0985123E-2,-3.273434E-2,1.4325662E-1,-1.3814372E-1,-6.992273E-2,-1.4842364E-1,1.021848E-3,-1.7323593E-2,1.2436004E-1,-1.3734001E-1,-3.8364597E-2,-2.8507167E-2,9.725725E-2,1.1577751E-1,-9.797001E-2],"categories":[],"categories_nodes":[],"categories_segments":[],"categories_sizes":[],"default_left":[0,0,0,0,0,0,0,0,0,0,0,0,0,0,0,0,0,0,0,0,0,0,0,0,0,0,0,0,0,0,0,0,0,0,0,0,0,0,0,0,0,0,0,0,0,0,0,0,0,0,0,0,0,0,0,0,0,0,0,0,0,0,0,0,0,0,0,0,0,0,0,0,0,0,0,0,0],"id":4,"left_children":[1,3,5,7,9,11,13,15,17,-1,-1,19,21,23,25,27,29,31,-1,33,35,37,39,41,43,45,47,-1,-1,49,-1,-1,-1,51,53,55,57,59,61,63,-1,65,67,69,71,73,-1,75,-1,-1,-1,-1,-1,-1,-1,-1,-1,-1,-1,-1,-1,-1,-1,-1,-1,-1,-1,-1,-1,-1,-1,-1,-1,-1,-1,-1,-1],"loss_changes":[1.1015688E3,2.8304321E1,1.125719E3,6.64447E0,6.752734E-1,5.4519806E1,1.5379517E2,6.466736E0,2.46318E1,0E0,0E0,3.7639618E1,3.7438107E1,6.2509766E0,1.7994932E1,1.742475E0,4.1098633E0,1.5048046E0,0E0,2.8891449E1,1.3626428E1,1.9293583E1,1.104446E1,3.3328857E0,1.0163816E1,1.1621132E0,5.425054E0,0E0,0E0,2.1784668E0,0E0,0E0,0E0,1.1816907E0,1.3914337E1,9.342723E0,2.337552E0,1.8096872E1,1.3241959E0,4.5455284E0,0E0,1.0830597E1,2.6900024E0,3.0413911E0,1.5504742E-1,1.6114872E0,0E0,5.869085E0,0E0,0E0,0E0,0E0,0E0,0E0,0E0,0E0,0E0,0E0,0E0,0E0,0E0,0E0,0E0,0E0,0E0,0E0,0E0,0E0,0E0,0E0,0E0,0E0,0E0,0E0,0E0,0E0,0E0],"parents":[2147483647,0,0,1,1,2,2,3,3,4,4,5,5,6,6,7,7,8,8,11,11,12,12,13,13,14,14,15,15,16,16,17,17,19,19,20,20,21,21,22,22,23,23,24,24,25,25,26,26,29,29,33,33,34,34,35,35,36,36,37,37,38,38,39,39,41,41,42,42,43,43,44,44,45,45,47,47],"right_children":[2,4,6,8,10,12,14,16,18,-1,-1,20,22,24,26,28,30,32,-1,34,36,38,40,42,44,46,48,-1,-1,50,-1,-1,-1,52,54,56,58,60,62,64,-1,66,68,70,72,74,-1,76,-1,-1,-1,-1,-1,-1,-1,-1,-1,-1,-1,-1,-1,-1,-1,-1,-1,-1,-1,-1,-1,-1,-1,-1,-1,-1,-1,-1,-1],"split_conditions":[0E0,7E0,3.6101083E-3,4E0,0E0,1E0,1E0,2E0,1E0,-2.3017514E-2,-1.3334788E-1,4E0,1.37E2,1E0,1E0,2.2E1,4E0,9E0,1.4041458E-1,2E0,1.2E1,3E0,1E0,2E0,1.8E1,1.8E1,1E0,-4.895862E-2,6.319618E-2,2E0,-2.4157083E-2,-1.4285396E-1,-1.3462913E-2,1E0,2E0,2E0,1E0,1E0,2E0,1E0,-1.13996305E-1,3.0555555E-1,1.98E2,1E1,1E0,1.4E1,1.4305195E-1,0E0,-1.3091378E-1,1.4365694E-1,6.490161E-2,-1.2881176E-1,-9.559334E-3,1.2618361E-1,-2.699849E-2,-1.3565126E-1,9.382607E-2,-1.9185117E-2,1.264623E-1,-9.016418E-2,1.0842468E-1,1.3749288E-1,1.0985123E-2,-3.273434E-2,1.4325662E-1,-1.3814372E-1,-6.992273E-2,-1.4842364E-1,1.021848E-3,-1.7323593E-2,1.2436004E-1,-1.3734001E-1,-3.8364597E-2,-2.8507167E-2,9.725725E-2,1.1577751E-1,-9.797001E-2],"split_indices":[47,4,26,4,46,10,34,21,5,0,0,4,3,24,39,20,8,13,0,21,13,8,9,13,22,21,30,0,0,10,0,0,0,30,8,5,46,28,11,42,0,26,3,13,31,20,0,46,0,0,0,0,0,0,0,0,0,0,0,0,0,0,0,0,0,0,0,0,0,0,0,0,0,0,0,0,0],"split_type":[0,0,0,0,0,0,0,0,0,0,0,0,0,0,0,0,0,0,0,0,0,0,0,0,0,0,0,0,0,0,0,0,0,0,0,0,0,0,0,0,0,0,0,0,0,0,0,0,0,0,0,0,0,0,0,0,0,0,0,0,0,0,0,0,0,0,0,0,0,0,0,0,0,0,0,0,0],"sum_hessian":[1.4542506E3,4.2307056E2,1.03118E3,4.191436E2,3.9269507E0,3.4936908E2,6.81811E2,4.0203082E2,1.7112766E1,1.2253026E0,2.701648E0,2.811884E2,6.818068E1,6.531777E2,2.8633272E1,3.5622585E0,3.9846857E2,4.5649867E0,1.2547779E1,2.6599353E2,1.5194864E1,4.6094368E1,2.2086311E1,6.410971E2,1.208057E1,2.2330482E1,6.302791E0,1.9209411E0,1.6413174E0,3.972556E2,1.2129538E0,3.127959E0,1.4370279E0,4.921564E0,2.6107196E2,1.0720381E1,4.4744835E0,4.035763E1,5.736737E0,2.0846645E1,1.2396649E0,2.0926237E2,4.3183475E2,4.6664133E0,7.414157E0,2.4593165E0,1.9871166E1,3.3916564E0,2.9111347E0,3.9135117E2,5.904458E0,3.706284E0,1.2152802E0,2.5532988E2,5.742084E0,9.316367E0,1.4040141E0,1.161186E0,3.3132977E0,3.5975533E1,4.3820987E0,4.5478373E0,1.1888995E0,1.2207689E0,1.9625877E1,1.7875769E2,3.050469E1,4.306406E2,1.1941624E0,2.9349015E0,1.7315118E0,6.260695E0,1.1534618E0,1.2317448E0,1.2275717E0,2.1742008E0,1.2174556E0],"tree_param":{"num_deleted":"0","num_feature":"48","num_nodes":"77","size_leaf_vector":"1"}},{"base_weights":[-1.0670135E-2,9.865826E-1,-5.2548975E-1,-5.521897E-1,1.0858653E0,-1.0929751E0,1.2788903E0,-8.923419E-1,1.039124E0,1.1340925E0,-1.1324025E0,-1.1959727E0,7.3219085E-1,1.321394E0,-7.9274356E-1,-1.1038326E0,5.570755E-1,1.23228334E-1,1.7918056E-2,1.1778597E0,-5.1962984E-1,-1.4053532E-1,5.19121E-2,-1.2372878E0,1.2729053E-1,1.0167164E0,-5.273465E-1,1.3505439E0,2.4853192E-2,-1.2929992E-1,4.590487E-2,-1.2016077E0,6.3212216E-3,9.344285E-2,-3.5670593E-3,1.2494146E0,2.2562851E-1,-9.048412E-1,1.03189886E-1,-1.2604088E0,-1.7732887E-1,1.1651968E0,-7.156189E-2,-9.5974565E-1,2.2746885E-1,1.3628948E0,2.5678705E-3,-1.09557025E-1,6.5664065E-1,-1.2673706E-1,-2.8521115E-2,1.2920336E-1,6.746634E-2,-4.6623256E-2,9.6319616E-2,-1.2816899E-1,8.850056E-2,-1.2914158E-1,-6.937634E-2,-1.1327616E-1,8.677381E-2,-7.366912E-2,1.2729983E-1,-2.3303272E-3,-1.3148335E-1,-2.2511082E-2,5.424999E-2,3.2159747E-3,1.370126E-1,-1.2295799E-2,1.0900245E-1],"categories":[],"categories_nodes":[],"categories_segments":[],"categories_sizes":[],"default_left":[0,0,0,0,0,0,0,0,0,0,0,0,0,0,0,0,0,0,0,0,0,0,0,0,0,0,0,0,0,0,0,0,0,0,0,0,0,0,0,0,0,0,0,0,0,0,0,0,0,0,0,0,0,0,0,0,0,0,0,0,0,0,0,0,0,0,0,0,0,0,0],"id":5,"left_children":[1,3,5,7,9,11,13,15,17,19,21,23,25,27,29,31,33,-1,-1,35,37,-1,-1,39,-1,41,43,45,47,-1,-1,49,-1,-1,-1,51,53,55,-1,57,59,61,-1,63,65,67,-1,-1,69,-1,-1,-1,-1,-1,-1,-1,-1,-1,-1,-1,-1,-1,-1,-1,-1,-1,-1,-1,-1,-1,-1],"loss_changes":[7.178706E2,7.333057E1,9.456648E2,1.6904812E1,4.916388E1,1.3285724E2,2.0515686E1,8.234613E0,7.1942234E-1,3.2352356E1,5.2480087E0,6.9401306E1,1.4198435E1,8.168701E0,3.7685204E0,2.5894623E0,8.8995504E-1,0E0,0E0,2.8848572E1,8.106134E0,0E0,0E0,1.5816956E1,0E0,8.920731E0,2.7260578E0,3.4378662E0,4.8185406E0,0E0,0E0,8.664112E-1,0E0,0E0,0E0,8.863464E0,1.631997E1,7.978215E0,0E0,1.0355408E1,1.6096048E1,6.952938E0,0E0,1.6574445E0,6.363717E-1,1.9792175E0,0E0,0E0,1.5963421E0,0E0,0E0,0E0,0E0,0E0,0E0,0E0,0E0,0E0,0E0,0E0,0E0,0E0,0E0,0E0,0E0,0E0,0E0,0E0,0E0,0E0,0E0],"parents":[2147483647,0,0,1,1,2,2,3,3,4,4,5,5,6,6,7,7,8,8,9,9,10,10,11,11,12,12,13,13,14,14,15,15,16,16,19,19,20,20,23,23,25,25,26,26,27,27,28,28,31,31,35,35,36,36,37,37,39,39,40,40,41,41,43,43,44,44,45,45,48,48],"right_children":[2,4,6,8,10,12,14,16,18,20,22,24,26,28,30,32,34,-1,-1,36,38,-1,-1,40,-1,42,44,46,48,-1,-1,50,-1,-1,-1,52,54,56,-1,58,60,62,-1,64,66,68,-1,-1,70,-1,-1,-1,-1,-1,-1,-1,-1,-1,-1,-1,-1,-1,-1,-1,-1,-1,-1,-1,-1,-1,-1],"split_conditions":[3.6101083E-3,2E0,7.4358976E-1,1E0,1E0,1E0,5E0,1E0,4.4E1,5E0,1E0,4E0,1E0,1E0,3E0,1E0,3.8E1,1.23228334E-1,1.7918056E-2,2E0,1.36E2,-1.4053532E-1,5.19121E-2,1E0,1.2729053E-1,6.7460316E-1,5E0,2E0,8.333333E-1,-1.2929992E-1,4.590487E-2,2.7E1,6.3212216E-3,9.344285E-2,-3.5670593E-3,1E0,1.33E2,2E0,1.03189886E-1,1E0,3E0,6.741573E-2,-7.156189E-2,5.4E1,9.5E1,1E0,2.5678705E-3,-1.09557025E-1,3E0,-1.2673706E-1,-2.8521115E-2,1.2920336E-1,6.746634E-2,-4.6623256E-2,9.6319616E-2,-1.2816899E-1,8.850056E-2,-1.2914158E-1,-6.937634E-2,-1.1327616E-1,8.677381E-2,-7.366912E-2,1.2729983E-1,-2.3303272E-3,-1.3148335E-1,-2.2511082E-2,5.424999E-2,3.2159747E-3,1.370126E-1,-1.2295799E-2,1.0900245E-1],"split_indices":[26,2,26,34,38,34,4,24,3,4,5,5,39,38,0,40,3,0,0,10,3,0,0,24,0,26,2,9,26,0,0,20,0,0,0,8,3,5,0,5,2,26,0,3,3,2,0,0,2,0,0,0,0,0,0,0,0,0,0,0,0,0,0,0,0,0,0,0,0,0,0],"split_type":[0,0,0,0,0,0,0,0,0,0,0,0,0,0,0,0,0,0,0,0,0,0,0,0,0,0,0,0,0,0,0,0,0,0,0,0,0,0,0,0,0,0,0,0,0,0,0,0,0,0,0,0,0,0,0,0,0,0,0,0,0,0,0,0,0,0,0,0,0,0,0],"sum_hessian":[1.3962435E3,4.75071E2,9.211724E2,2.8517614E1,4.465534E2,7.0107544E2,2.2009703E2,2.3857237E1,4.6603765E0,4.3752988E2,9.023549E0,6.639521E2,3.712333E1,2.1602693E2,4.0700884E0,2.102746E1,2.829777E0,3.452009E0,1.2083678E0,4.2652914E2,1.1000725E1,7.871643E0,1.1519061E0,6.535148E2,1.0437311E1,3.043985E1,6.6834784E0,2.1123611E2,4.7908196E0,2.8844523E0,1.1856363E0,1.9374638E1,1.652823E0,1.3768253E0,1.4529518E0,3.9642767E2,3.0101458E1,9.146622E0,1.8541033E0,6.3937885E2,1.4135945E1,2.8338324E1,2.101527E0,4.076653E0,2.6068254E0,2.0925664E2,1.9794772E0,1.4627218E0,3.328098E0,1.772001E1,1.6546264E0,3.6789914E2,2.8528543E1,1.5721802E1,1.4379655E1,7.7903E0,1.3563216E0,6.049943E2,3.438453E1,7.3408237E0,6.7951217E0,1.2071645E0,2.7131159E1,1.4137964E0,2.6628568E0,1.1869963E0,1.4198289E0,1.1604102E0,2.0809624E2,1.4450084E0,1.8830897E0],"tree_param":{"num_deleted":"0","num_feature":"48","num_nodes":"71","size_leaf_vector":"1"}},{"base_weights":[-2.764215E-3,1.2379171E0,-5.065571E-1,1.2877663E0,2.600057E-1,7.7642E-1,-1.1863573E0,3.2686415E-1,1.3291001E0,-1.2276552E0,1.2902606E-1,-6.602829E-1,1.0303457E0,-1.2712821E0,8.362923E-1,1.2560809E-1,-8.6014795E-1,1.3464675E0,4.2606512E-1,-1.4457496E-1,7.292956E-3,-1.0825206E0,5.2241164E-1,1.169758E0,-8.580003E-1,-1.2873473E0,-4.9572188E-1,-1.1747738E-1,1.0280861E0,-1.5842967E-1,9.2548355E-2,1.3525663E-1,6.353464E-1,1.1840556E-1,-9.4696335E-2,6.222493E-1,-1.3066906E0,1.1699843E0,-1.4112641E-1,1.214006E0,-1.2211068E-1,-1.0998348E0,9.923349E-2,-1.311643E0,-9.50967E-1,-1.1688068E0,5.172911E-1,-4.5133784E-2,1.1955261E0,-4.1513976E-2,1.0865507E-1,-5.613468E-2,1.1139448E-1,-1.574683E-1,-2.488892E-2,1.3111548E-1,2.8357549E-2,1.311258E-1,7.454893E-2,-1.3765793E-1,2.8552264E-2,-1.05437614E-1,-1.3365197E-1,-4.5850646E-2,-1.351414E-1,-1.2591308E-1,-2.8652191E-2,-5.7962324E-2,9.083767E-2,1.2925972E-1,4.006276E-2],"categories":[],"categories_nodes":[],"categories_segments":[],"categories_sizes":[],"default_left":[0,0,0,0,0,0,0,0,0,0,0,0,0,0,0,0,0,0,0,0,0,0,0,0,0,0,0,0,0,0,0,0,0,0,0,0,0,0,0,0,0,0,0,0,0,0,0,0,0,0,0,0,0,0,0,0,0,0,0,0,0,0,0,0,0,0,0,0,0,0,0],"id":6,"left_children":[1,3,5,7,9,11,13,15,17,19,-1,21,23,25,27,-1,29,31,33,-1,-1,35,37,39,41,43,45,-1,47,-1,-1,-1,49,-1,-1,51,53,55,-1,57,-1,59,-1,61,63,65,67,-1,69,-1,-1,-1,-1,-1,-1,-1,-1,-1,-1,-1,-1,-1,-1,-1,-1,-1,-1,-1,-1,-1,-1],"loss_changes":[8.2907935E2,1.8338867E1,8.2369006E2,1.4032043E1,3.1980938E1,1.2009685E2,1.0705188E2,1.9111729E1,4.8980103E0,2.5525894E0,0E0,2.5421412E1,7.4336914E1,6.744873E0,1.1030382E1,0E0,1.1515469E1,6.2323E-1,9.495184E0,0E0,0E0,1.4954601E1,1.889305E1,2.8970276E1,9.91937E0,3.4920654E0,9.9128685E0,0E0,6.430834E0,0E0,0E0,0E0,2.7227137E0,0E0,0E0,3.522256E0,8.97052E0,9.8736286E-1,0E0,1.066922E1,0E0,7.2642746E0,0E0,2.0352783E0,7.801029E0,3.173046E-1,3.1617322E0,0E0,1.1518116E0,0E0,0E0,0E0,0E0,0E0,0E0,0E0,0E0,0E0,0E0,0E0,0E0,0E0,0E0,0E0,0E0,0E0,0E0,0E0,0E0,0E0,0E0],"parents":[2147483647,0,0,1,1,2,2,3,3,4,4,5,5,6,6,7,7,8,8,9,9,11,11,12,12,13,13,14,14,16,16,17,17,18,18,21,21,22,22,23,23,24,24,25,25,26,26,28,28,32,32,35,35,36,36,37,37,39,39,41,41,43,43,44,44,45,45,46,46,48,48],"right_children":[2,4,6,8,10,12,14,16,18,20,-1,22,24,26,28,-1,30,32,34,-1,-1,36,38,40,42,44,46,-1,48,-1,-1,-1,50,-1,-1,52,54,56,-1,58,-1,60,-1,62,64,66,68,-1,70,-1,-1,-1,-1,-1,-1,-1,-1,-1,-1,-1,-1,-1,-1,-1,-1,-1,-1,-1,-1,-1,-1],"split_conditions":[0E0,4E0,3.6101083E-3,1E0,1E0,1E0,1E0,1E0,1E0,7.913669E-2,1.2902606E-1,1E0,1.8018018E-3,1E0,1E0,1.2560809E-1,1E0,1.45E2,3.25E-1,-1.4457496E-1,7.292956E-3,1E0,1E0,1E0,2.929293E-1,1E0,3E0,-1.1747738E-1,2E0,-1.5842967E-1,9.2548355E-2,1.3525663E-1,1.58E2,1.1840556E-1,-9.4696335E-2,4.1E1,1E0,5.1111114E-1,-1.4112641E-1,1E0,-1.2211068E-1,1E0,9.923349E-2,3.0303031E-2,3E0,2.6E1,3.1E1,-4.5133784E-2,1E0,-4.1513976E-2,1.0865507E-1,-5.613468E-2,1.1139448E-1,-1.574683E-1,-2.488892E-2,1.3111548E-1,2.8357549E-2,1.311258E-1,7.454893E-2,-1.3765793E-1,2.8552264E-2,-1.05437614E-1,-1.3365197E-1,-4.5850646E-2,-1.351414E-1,-1.2591308E-1,-2.8652191E-2,-5.7962324E-2,9.083767E-2,1.2925972E-1,4.006276E-2],"split_indices":[47,4,26,29,5,29,34,14,38,33,0,34,33,24,29,0,31,3,27,0,0,14,39,38,33,27,2,0,0,0,0,0,3,0,0,3,39,27,0,10,0,28,0,27,4,20,21,0,39,0,0,0,0,0,0,0,0,0,0,0,0,0,0,0,0,0,0,0,0,0,0],"split_type":[0,0,0,0,0,0,0,0,0,0,0,0,0,0,0,0,0,0,0,0,0,0,0,0,0,0,0,0,0,0,0,0,0,0,0,0,0,0,0,0,0,0,0,0,0,0,0,0,0,0,0,0,0,0,0,0,0,0,0,0,0,0,0,0,0,0,0,0,0,0,0],"sum_hessian":[1.3244252E3,3.8206464E2,9.423606E2,3.6323196E2,1.8832676E1,3.2633365E2,6.16027E2,1.5347645E1,3.478843E2,7.627362E0,1.1205314E1,4.8773666E1,2.7755997E2,5.915606E2,2.446634E1,8.575996E0,6.771648E0,3.408382E2,7.0461082E0,6.436426E0,1.1909354E0,3.6004337E1,1.2769329E1,2.5883157E2,1.8728403E1,5.78909E2,1.2651595E1,1.6839514E0,2.2782389E1,4.8980393E0,1.8736085E0,3.3704553E2,3.7926598E0,4.6285276E0,2.4175806E0,3.977839E0,3.2026497E1,9.861675E0,2.907654E0,2.5461168E2,4.2198925E0,1.69223E1,1.8061036E0,5.372088E2,4.1700195E1,7.5087194E0,5.142875E0,2.1439455E0,2.0638443E1,1.1635747E0,2.629085E0,1.1259139E0,2.8519251E0,2.5162882E1,6.8636174E0,8.093516E0,1.768159E0,2.0935603E2,4.5255646E1,1.4109974E1,2.8123267E0,5.119125E1,4.8601758E2,1.966348E1,2.2036715E1,6.423942E0,1.0847774E0,1.2249776E0,3.9178975E0,1.7834429E1,2.8040128E0],"tree_param":{"num_deleted":"0","num_feature":"48","num_nodes":"71","size_leaf_vector":"1"}},{"base_weights":[5.954479E-3,1.181697E0,-4.7449517E-1,1.2285846E0,2.0687827E-1,7.543519E-1,-1.1305695E0,-1.34771E-1,1.2445172E0,-1.1529163E0,1.228776E-1,8.879403E-1,-8.6963046E-1,-1.2185248E0,7.845966E-1,-1.0424812E-1,4.3505085E-1,1.2674224E0,2.7652422E-1,-1.3686527E-1,6.9003454E-3,1.0949022E0,1.3478166E-1,-1.121702E0,8.7290056E-2,-1.2243139E0,3.486925E-2,1.1807132E0,-4.6688005E-1,4.2768115E-5,7.773784E-2,1.2739329E0,-1.67612E-2,-3.1695405E-1,1.11709654E-1,1.1407098E0,-1.1581997E-1,-3.9390805E-1,9.2472553E-1,-1.2837739E0,7.719289E-2,-1.2867885E0,-1.050876E0,-7.5066823E-4,1.2859677E-1,1.941122E-1,-1.1777055E-1,8.290356E-2,1.2917969E-1,-1.1974285E-1,5.4694332E-2,1.18621826E-1,-3.7117492E-2,-5.443823E-2,1.2224444E-1,1.1232736E-1,-8.672285E-2,-1.3824E-1,-3.7153255E-2,-1.3049828E-1,-9.2472255E-2,-1.1310047E-1,4.082114E-2,-9.212684E-2,8.721428E-2],"categories":[],"categories_nodes":[],"categories_segments":[],"categories_sizes":[],"default_left":[0,0,0,0,0,0,0,0,0,0,0,0,0,0,0,0,0,0,0,0,0,0,0,0,0,0,0,0,0,0,0,0,0,0,0,0,0,0,0,0,0,0,0,0,0,0,0,0,0,0,0,0,0,0,0,0,0,0,0,0,0,0,0,0,0],"id":7,"left_children":[1,3,5,7,9,11,13,15,17,19,-1,21,23,25,27,-1,29,31,33,-1,-1,35,37,39,-1,41,-1,43,45,-1,-1,47,-1,49,-1,51,-1,53,55,57,-1,59,61,-1,-1,63,-1,-1,-1,-1,-1,-1,-1,-1,-1,-1,-1,-1,-1,-1,-1,-1,-1,-1,-1],"loss_changes":[7.1368304E2,1.6497711E1,7.2395856E2,7.759094E0,2.6459513E1,6.8629105E1,9.9520874E1,3.0082884E0,7.310974E0,2.2688503E0,0E0,4.4979034E1,1.1643547E1,5.5061035E0,1.3589422E1,0E0,5.561117E-1,3.364563E0,4.976787E0,0E0,0E0,2.4745453E1,2.6903101E1,7.6349735E0,0E0,4.6937866E0,0E0,2.543604E0,3.5363193E0,0E0,0E0,1.5984497E0,0E0,5.378942E0,0E0,1.577948E1,0E0,1.0094849E1,1.0145136E1,1.3143463E0,0E0,1.4662476E0,1.8375626E1,0E0,0E0,4.2114472E0,0E0,0E0,0E0,0E0,0E0,0E0,0E0,0E0,0E0,0E0,0E0,0E0,0E0,0E0,0E0,0E0,0E0,0E0,0E0],"parents":[2147483647,0,0,1,1,2,2,3,3,4,4,5,5,6,6,7,7,8,8,9,9,11,11,12,12,13,13,14,14,16,16,17,17,18,18,21,21,22,22,23,23,25,25,27,27,28,28,31,31,33,33,35,35,37,37,38,38,39,39,41,41,42,42,45,45],"right_children":[2,4,6,8,10,12,14,16,18,20,-1,22,24,26,28,-1,30,32,34,-1,-1,36,38,40,-1,42,-1,44,46,-1,-1,48,-1,50,-1,52,-1,54,56,58,-1,60,62,-1,-1,64,-1,-1,-1,-1,-1,-1,-1,-1,-1,-1,-1,-1,-1,-1,-1,-1,-1,-1,-1],"split_conditions":[0E0,4E0,3.6101083E-3,1E0,1E0,1.8018018E-3,1E0,2E0,1E0,7.913669E-2,1.228776E-1,1E0,3.5260117E-1,1.99E2,1E0,-1.0424812E-1,1E0,4E0,1.2195122E-1,-1.3686527E-1,6.9003454E-3,1E0,4E0,2E0,8.7290056E-2,2E-1,3.486925E-2,2E0,1E0,4.2768115E-5,7.773784E-2,2E0,-1.67612E-2,8.333333E-1,1.11709654E-1,5E0,-1.1581997E-1,3.2E1,1E0,1E0,7.719289E-2,1.6E1,4E0,-7.5066823E-4,1.2859677E-1,2E0,-1.1777055E-1,8.290356E-2,1.2917969E-1,-1.1974285E-1,5.4694332E-2,1.18621826E-1,-3.7117492E-2,-5.443823E-2,1.2224444E-1,1.1232736E-1,-8.672285E-2,-1.3824E-1,-3.7153255E-2,-1.3049828E-1,-9.2472255E-2,-1.1310047E-1,4.082114E-2,-9.212684E-2,8.721428E-2],"split_indices":[47,4,26,2,5,33,34,0,38,33,0,10,33,3,39,0,15,8,33,0,0,38,2,1,0,26,0,2,1,0,0,2,0,26,0,4,0,20,40,28,0,13,0,0,0,0,0,0,0,0,0,0,0,0,0,0,0,0,0,0,0,0,0,0,0],"split_type":[0,0,0,0,0,0,0,0,0,0,0,0,0,0,0,0,0,0,0,0,0,0,0,0,0,0,0,0,0,0,0,0,0,0,0,0,0,0,0,0,0,0,0,0,0,0,0,0,0,0,0,0,0,0,0,0,0,0,0,0,0,0,0,0,0],"sum_hessian":[1.26142E3,3.6550565E2,8.959144E2,3.4848364E2,1.7021992E1,3.1178387E2,5.8413055E2,3.9392738E0,3.4454437E2,7.248508E0,9.773483E0,2.885048E2,2.3279099E1,5.588296E2,2.530092E1,1.199314E0,2.7399597E0,3.3627783E2,8.266539E0,6.0587244E0,1.1897836E0,2.2595927E2,6.2545513E1,2.0648413E1,2.6306844E0,5.5699097E2,1.8386261E0,1.9260988E1,6.039931E0,1.6483915E0,1.0915684E0,3.3487088E2,1.4069667E0,5.2105846E0,3.0559542E0,2.2194073E2,4.0185413E0,3.776901E1,2.4776506E1,1.9317156E1,1.3312578E0,4.0476874E2,1.5222223E2,1.6429034E0,1.7618086E1,3.5063334E0,2.5335977E0,1.4757051E1,3.2011383E2,2.3893297E0,2.8212552E0,2.156645E2,6.2762194E0,3.515908E1,2.6099281E0,2.264104E1,2.1354651E0,1.6967358E1,2.3497977E0,3.829221E2,2.1846657E1,1.4451099E2,7.71125E0,1.1900024E0,2.316331E0],"tree_param":{"num_deleted":"0","num_feature":"48","num_nodes":"65","size_leaf_vector":"1"}},{"base_weights":[-4.8368583E-3,1.1422498E0,-4.5528165E-1,1.180227E0,-2.4422975E-1,6.9259304E-1,-1.0940876E0,1.1954267E0,-8.333739E-2,7.5091314E-1,-9.0925306E-1,-6.679976E-1,9.3924356E-1,-1.1750901E0,7.716553E-1,4.3318158E-1,1.2264395E0,-1.6387364E-4,1.0122099E-1,-1.21147506E-1,7.790662E-3,-1.0134835E0,3.508298E-1,1.0646929E0,-8.566105E-1,-1.2025957E0,-6.779935E-1,-1.1174778E-1,9.633693E-1,1.17003754E-1,-5.88452E-1,1.2401036E0,1.3657117E-1,-1.2141975E0,-2.1612132E-1,1.0119278E0,-1.4434618E-1,-3.5929665E-1,1.1373494E0,-1.0361613E0,8.11838E-2,-1.2280484E0,-8.3466095E-1,3.3631888E-1,-9.108281E-1,1.1062578E0,-5.273081E-2,-1.15613274E-1,8.071649E-2,1.4266714E-2,1.24699675E-1,-6.467822E-2,9.390907E-2,-1.2884368E-1,3.9219618E-2,3.580397E-2,-1.1490772E-1,1.2213202E-1,1.0861842E-2,7.754826E-2,-1.285783E-1,1.1708174E-1,-1.08646296E-1,-1.2406611E-1,7.309458E-2,-1.2311178E-1,6.2531545E-3,-1.5704362E-2,-1.2260329E-1,1.3097496E-1,-2.7181793E-2,-1.0822213E-1,5.5400677E-2,2.6575683E-2,1.2065587E-1],"categories":[],"categories_nodes":[],"categories_segments":[],"categories_sizes":[],"default_left":[0,0,0,0,0,0,0,0,0,0,0,0,0,0,0,0,0,0,0,0,0,0,0,0,0,0,0,0,0,0,0,0,0,0,0,0,0,0,0,0,0,0,0,0,0,0,0,0,0,0,0,0,0,0,0,0,0,0,0,0,0,0,0,0,0,0,0,0,0,0,0,0,0,0,0],"id":8,"left_children":[1,3,5,7,9,11,13,15,-1,17,19,21,23,25,27,29,31,-1,-1,-1,-1,33,35,37,39,41,43,-1,45,-1,47,49,51,53,55,57,-1,59,61,63,-1,65,67,69,71,73,-1,-1,-1,-1,-1,-1,-1,-1,-1,-1,-1,-1,-1,-1,-1,-1,-1,-1,-1,-1,-1,-1,-1,-1,-1,-1,-1,-1,-1],"loss_changes":[6.1802856E2,1.80466E1,6.3052075E2,1.1048401E1,7.181696E0,1.0388223E2,8.43548E1,7.184326E0,0E0,8.828814E-1,1.9854951E0,1.7181324E1,5.9685196E1,6.425659E0,9.61608E0,1.1458356E1,4.493103E0,0E0,0E0,0E0,0E0,5.4917374E0,1.670068E1,2.5683563E1,6.1100473E0,3.6623535E0,7.4053335E0,0E0,5.2572727E0,0E0,6.2098026E0,2.1602478E0,3.7509143E0,3.9049988E0,4.9361544E0,1.7543449E0,0E0,1.42645645E1,1.858902E1,6.803898E0,0E0,1.9229736E0,9.223736E0,4.110466E0,6.805086E0,1.3946381E0,0E0,0E0,0E0,0E0,0E0,0E0,0E0,0E0,0E0,0E0,0E0,0E0,0E0,0E0,0E0,0E0,0E0,0E0,0E0,0E0,0E0,0E0,0E0,0E0,0E0,0E0,0E0,0E0,0E0],"parents":[2147483647,0,0,1,1,2,2,3,3,4,4,5,5,6,6,7,7,9,9,10,10,11,11,12,12,13,13,14,14,15,15,16,16,21,21,22,22,23,23,24,24,25,25,26,26,28,28,30,30,31,31,32,32,33,33,34,34,35,35,37,37,38,38,39,39,41,41,42,42,43,43,44,44,45,45],"right_children":[2,4,6,8,10,12,14,16,-1,18,20,22,24,26,28,30,32,-1,-1,-1,-1,34,36,38,40,42,44,-1,46,-1,48,50,52,54,56,58,-1,60,62,64,-1,66,68,70,72,74,-1,-1,-1,-1,-1,-1,-1,-1,-1,-1,-1,-1,-1,-1,-1,-1,-1,-1,-1,-1,-1,-1,-1,-1,-1,-1,-1,-1,-1],"split_conditions":[0E0,1E0,3.6101083E-3,7E0,1.375E-1,1E0,1E0,1E0,-8.333739E-2,1.9E1,8.333333E-1,1E0,1.8018018E-3,1E0,1E0,4.5454547E-2,6.7E1,-1.6387364E-4,1.0122099E-1,-1.21147506E-1,7.790662E-3,5E1,1E0,2E0,2.929293E-1,1E0,3.0303031E-2,-1.1174778E-1,1E0,1.17003754E-1,1E0,1E0,6E0,1E0,1.1235955E-2,5.1111114E-1,-1.4434618E-1,1E0,1E0,2E0,8.11838E-2,4.3E1,1E0,1E0,9.89899E-1,1.2686567E-1,-5.273081E-2,-1.15613274E-1,8.071649E-2,1.4266714E-2,1.24699675E-1,-6.467822E-2,9.390907E-2,-1.2884368E-1,3.9219618E-2,3.580397E-2,-1.1490772E-1,1.2213202E-1,1.0861842E-2,7.754826E-2,-1.285783E-1,1.1708174E-1,-1.08646296E-1,-1.2406611E-1,7.309458E-2,-1.2311178E-1,6.2531545E-3,-1.5704362E-2,-1.2260329E-1,1.3097496E-1,-2.7181793E-2,-1.0822213E-1,5.5400677E-2,2.6575683E-2,1.2065587E-1],"split_indices":[47,38,26,4,27,29,34,29,0,20,26,34,33,5,29,26,22,0,0,0,0,21,39,2,33,27,27,0,32,0,31,2,0,30,27,27,0,22,38,1,0,13,39,46,27,26,0,0,0,0,0,0,0,0,0,0,0,0,0,0,0,0,0,0,0,0,0,0,0,0,0,0,0,0,0],"split_type":[0,0,0,0,0,0,0,0,0,0,0,0,0,0,0,0,0,0,0,0,0,0,0,0,0,0,0,0,0,0,0,0,0,0,0,0,0,0,0,0,0,0,0,0,0,0,0,0,0,0,0,0,0,0,0,0,0,0,0,0,0,0,0,0,0,0,0,0,0,0,0,0,0,0,0],"sum_hessian":[1.1941024E3,3.3625967E2,8.578428E2,3.2743948E2,8.820176E0,3.0668115E2,5.511616E2,3.2538962E2,2.0498693E0,3.4814181E0,5.338758E0,4.6801754E1,2.598794E2,5.28583E2,2.2578604E1,1.3306446E1,3.120832E2,1.1533686E0,2.3280497E0,3.9134197E0,1.4253381E0,3.4954033E1,1.1847721E1,2.4329141E2,1.6587976E1,4.9952377E2,2.9059256E1,1.6353291E0,2.0943275E1,7.646283E0,5.6601634E0,3.080828E2,4.0003905E0,2.7507105E1,7.446927E0,8.976429E0,2.8712924E0,1.1619363E1,2.3167204E2,1.5318443E1,1.2695341E0,4.6501752E2,3.4506264E1,5.3422065E0,2.371705E1,1.9346685E1,1.5965897E0,4.1455274E0,1.514636E0,2.0584626E0,3.0602432E2,2.1225715E0,1.8778188E0,2.6481213E1,1.0258927E0,4.991365E0,2.455562E0,7.0014105E0,1.9750181E0,5.2958655E0,6.323498E0,2.2870361E2,2.9684377E0,1.3996592E1,1.3218516E0,4.6396017E2,1.0573308E0,1.3146247E1,2.1360016E1,1.6105412E0,3.7316654E0,2.1466553E1,2.2504966E0,2.4516819E0,1.6895002E1],"tree_param":{"num_deleted":"0","num_feature":"48","num_nodes":"75","size_leaf_vector":"1"}},{"base_weights":[-3.106031E-3,8.0046886E-1,-4.2242867E-1,-3.6519963E-1,9.844228E-1,-9.1907907E-1,1.1003817E0,1.4199491E-1,-1.2250749E0,-2.0309713E-1,1.0486783E0,-1.0448736E0,1.0559105E0,-3.408133E-1,1.1474488E0,5.448803E-1,-1.0837535E-1,-1.5127139E-1,5.227481E-1,2.3150069E-1,-1.1244346E-1,1.0756881E0,-6.4646065E-1,-1.1474222E0,-3.530134E-1,1.1088818E0,-1.132698E-2,6.904582E-2,-1.0791842E0,4.6533015E-1,1.2027338E0,7.7586323E-1,-7.5526696E-1,8.6846225E-2,-1.5047825E-2,-4.3178588E-1,8.2188976E-1,1.1191955E0,4.4043133E-1,-1.07372664E-1,5.0433096E-2,-1.1738627E0,-6.628636E-1,1.0906968E0,-7.576389E-1,1.1485192E0,2.3448057E-2,-2.9395422E-2,-1.2563702E-1,-1.0940865E0,8.83207E-1,1.2121013E0,3.7459937E-1,8.874457E-2,-7.212522E-2,-1.0438625E-1,-1.929266E-2,-9.949224E-2,6.577616E-2,9.216316E-2,1.1779757E-2,8.32256E-2,1.2068921E-1,-7.818601E-2,8.0141805E-2,-1.181222E-1,1.1781244E-2,-8.445878E-2,9.3314014E-2,-9.4788246E-2,1.470886E-1,-1.08193815E-1,-4.1932776E-3,2.551634E-2,1.1723067E-1,-1.572641E-1,-3.3436243E-3,1.06633954E-1,1.438651E-2,1.22874E-1,7.150888E-2,7.1509704E-2,-1.8462777E-2],"categories":[],"categories_nodes":[],"categories_segments":[],"categories_sizes":[],"default_left":[0,0,0,0,0,0,0,0,0,0,0,0,0,0,0,0,0,0,0,0,0,0,0,0,0,0,0,0,0,0,0,0,0,0,0,0,0,0,0,0,0,0,0,0,0,0,0,0,0,0,0,0,0,0,0,0,0,0,0,0,0,0,0,0,0,0,0,0,0,0,0,0,0,0,0,0,0,0,0,0,0,0,0],"id":9,"left_children":[1,3,5,7,9,11,13,15,17,19,21,23,25,27,29,31,-1,-1,33,35,-1,37,39,41,43,45,-1,-1,47,49,51,53,55,-1,-1,57,59,61,63,-1,-1,65,67,69,71,73,-1,-1,-1,75,77,79,81,-1,-1,-1,-1,-1,-1,-1,-1,-1,-1,-1,-1,-1,-1,-1,-1,-1,-1,-1,-1,-1,-1,-1,-1,-1,-1,-1,-1,-1,-1],"loss_changes":[3.7747437E2,8.272716E1,5.577391E2,2.3325932E1,2.5549133E1,1.3914478E2,1.2702042E1,1.752249E1,1.0744629E1,7.4203806E0,1.51249695E1,3.6691345E1,2.2169685E0,5.7027774E0,6.076645E0,8.535348E0,0E0,0E0,9.5484775E-1,5.437685E0,0E0,8.091278E0,3.2790136E0,5.050293E0,4.1097923E1,8.5354996E-1,0E0,0E0,2.1285772E-1,1.0626685E1,8.038788E-1,4.477317E0,5.289092E-1,0E0,0E0,4.807059E0,3.978877E-1,6.2938538E0,1.0138227E1,0E0,0E0,4.227478E0,8.2813635E0,1.3408665E1,1.2589727E1,3.5402298E-1,0E0,0E0,0E0,1.7643867E0,1.5045271E0,4.43573E-1,7.529745E-1,0E0,0E0,0E0,0E0,0E0,0E0,0E0,0E0,0E0,0E0,0E0,0E0,0E0,0E0,0E0,0E0,0E0,0E0,0E0,0E0,0E0,0E0,0E0,0E0,0E0,0E0,0E0,0E0,0E0,0E0],"parents":[2147483647,0,0,1,1,2,2,3,3,4,4,5,5,6,6,7,7,8,8,9,9,10,10,11,11,12,12,13,13,14,14,15,15,18,18,19,19,21,21,22,22,23,23,24,24,25,25,28,28,29,29,30,30,31,31,32,32,35,35,36,36,37,37,38,38,41,41,42,42,43,43,44,44,45,45,49,49,50,50,51,51,52,52],"right_children":[2,4,6,8,10,12,14,16,18,20,22,24,26,28,30,32,-1,-1,34,36,-1,38,40,42,44,46,-1,-1,48,50,52,54,56,-1,-1,58,60,62,64,-1,-1,66,68,70,72,74,-1,-1,-1,76,78,80,82,-1,-1,-1,-1,-1,-1,-1,-1,-1,-1,-1,-1,-1,-1,-1,-1,-1,-1,-1,-1,-1,-1,-1,-1,-1,-1,-1,-1,-1,-1],"split_conditions":[3.6101083E-3,1E0,7.4358976E-1,1.1235955E-2,2E0,3.3333334E-1,1E0,1E0,1E0,8E0,1E0,3.75E-1,1E0,2E0,8.333333E-1,1E0,-1.0837535E-1,-1.5127139E-1,0E0,1E0,-1.1244346E-1,1E0,1.4417177E-1,1E0,3.2258064E-2,1E0,-1.132698E-2,6.904582E-2,1.5E1,1E0,2E0,1E0,4.7E1,8.6846225E-2,-1.5047825E-2,9.859155E-1,2E1,1E0,4.1E1,-1.07372664E-1,5.0433096E-2,7E0,9.89899E-1,3E0,9.259259E-1,2.4096385E-2,2.3448057E-2,-2.9395422E-2,-1.2563702E-1,7.878788E-1,4E1,7.1E1,9E0,8.874457E-2,-7.212522E-2,-1.0438625E-1,-1.929266E-2,-9.949224E-2,6.577616E-2,9.216316E-2,1.1779757E-2,8.32256E-2,1.2068921E-1,-7.818601E-2,8.0141805E-2,-1.181222E-1,1.1781244E-2,-8.445878E-2,9.3314014E-2,-9.4788246E-2,1.470886E-1,-1.08193815E-1,-4.1932776E-3,2.551634E-2,1.1723067E-1,-1.572641E-1,-3.3436243E-3,1.06633954E-1,1.438651E-2,1.22874E-1,7.150888E-2,7.1509704E-2,-1.8462777E-2],"split_indices":[26,29,26,27,2,33,29,22,28,22,38,26,32,13,26,8,0,0,46,46,0,11,33,5,27,38,0,0,20,45,9,38,21,0,0,27,21,46,22,0,0,11,27,2,27,26,0,0,0,27,21,21,13,0,0,0,0,0,0,0,0,0,0,0,0,0,0,0,0,0,0,0,0,0,0,0,0,0,0,0,0,0,0],"split_type":[0,0,0,0,0,0,0,0,0,0,0,0,0,0,0,0,0,0,0,0,0,0,0,0,0,0,0,0,0,0,0,0,0,0,0,0,0,0,0,0,0,0,0,0,0,0,0,0,0,0,0,0,0,0,0,0,0,0,0,0,0,0,0,0,0,0,0,0,0,0,0,0,0,0,0,0,0,0,0,0,0,0,0],"sum_hessian":[1.118241E3,3.83125E2,7.35116E2,5.208577E1,3.3103925E2,5.546263E2,1.8048973E2,3.328663E1,1.879914E1,1.6881796E1,3.1415744E2,5.218581E2,3.276817E1,5.510704E0,1.7497902E2,2.5470366E1,7.816262E0,1.6258068E1,2.5410726E0,1.1979678E1,4.902118E0,3.0958997E2,4.5674853E0,4.5391904E2,6.793906E1,3.1397245E1,1.370925E0,2.3263774E0,3.1843264E0,1.3824625E1,1.611544E2,2.1970379E1,3.499987E0,1.4873108E0,1.0537618E0,5.7680583E0,6.21162E0,2.8903293E2,2.0557035E1,3.3796542E0,1.1878313E0,4.2908316E2,2.4835875E1,1.4501588E1,5.3437466E1,2.9735806E1,1.6614401E0,1.075791E0,2.1085355E0,2.5796783E0,1.12449465E1,1.5889339E2,2.2610152E0,2.0825453E1,1.1449256E0,1.7470903E0,1.7528965E0,3.8599024E0,1.908156E0,5.170239E0,1.0413811E0,7.0113846E1,2.1891907E2,4.4211707E0,1.6135864E1,4.2673734E2,2.345835E0,2.2719767E1,2.1161075E0,2.044699E0,1.2456888E1,3.6422207E1,1.701526E1,1.0753971E0,2.8660408E1,1.4449967E0,1.1346816E0,8.658086E0,2.5868602E0,1.5232182E2,6.5715704E0,1.2321004E0,1.0289149E0],"tree_param":{"num_deleted":"0","num_feature":"48","num_nodes":"83","size_leaf_vector":"1"}},{"base_weights":[3.101765E-3,1.0582067E0,-4.1480365E-1,1.1184562E0,1.5272014E-1,6.326891E-1,-1.013533E0,4.7395173E-1,1.1594791E0,-8.0860126E-1,1.1329724E-1,7.7649E-1,-8.958473E-1,-1.0956457E0,6.0852236E-1,-1.2243691E-1,9.4284666E-1,1.1832038E0,2.100915E-1,8.081488E-2,-1.2501681E0,9.983311E-1,1.4614628E-1,-1.1162536E0,7.787749E-2,-1.115056E0,-2.4242136E-1,9.416343E-1,-4.0835693E-1,5.1045835E-1,-1.1237228E0,1.6602485E-2,1.0391494E-1,1.1909213E0,-2.842771E-2,7.797997E-1,-1.0300746E-1,-1.4987768E-1,2.063805E-2,1.0371069E0,-9.915588E-2,-5.620666E-1,6.054075E-1,-1.2083845E0,3.4053292E-2,-1.1476842E0,-7.0160323E-1,-9.4499475E-1,6.165657E-1,-4.6173047E-2,1.1293913E0,2.062405E-1,-1.0916084E-1,9.660213E-3,8.872808E-2,-1.9771809E-2,-1.4518356E-1,1.1967597E-1,1.1060583E-2,-4.5134253E-3,9.837904E-2,1.0702292E-1,-3.0289054E-2,-8.435261E-2,6.807246E-2,7.248886E-2,-1.043696E-1,-1.2501824E-1,-3.3121075E-2,-7.6129094E-2,-1.1870666E-1,-1.9342852E-3,-1.0853856E-1,-1.7009785E-2,-1.0580217E-1,-7.950666E-2,1.1265856E-1,1.1723465E-1,2.3935111E-2,7.1672924E-2,-5.4644406E-2],"categories":[],"categories_nodes":[],"categories_segments":[],"categories_sizes":[],"default_left":[0,0,0,0,0,0,0,0,0,0,0,0,0,0,0,0,0,0,0,0,0,0,0,0,0,0,0,0,0,0,0,0,0,0,0,0,0,0,0,0,0,0,0,0,0,0,0,0,0,0,0,0,0,0,0,0,0,0,0,0,0,0,0,0,0,0,0,0,0,0,0,0,0,0,0,0,0,0,0,0,0],"id":10,"left_children":[1,3,5,7,9,11,13,15,17,19,-1,21,23,25,27,29,31,33,35,-1,37,39,41,43,-1,45,47,49,51,53,55,-1,-1,57,-1,59,-1,-1,-1,61,-1,63,65,67,-1,69,71,73,75,-1,77,79,-1,-1,-1,-1,-1,-1,-1,-1,-1,-1,-1,-1,-1,-1,-1,-1,-1,-1,-1,-1,-1,-1,-1,-1,-1,-1,-1,-1,-1],"loss_changes":[4.6289853E2,1.607788E1,4.722552E2,6.829773E0,1.9517433E1,6.0946175E1,6.4447845E1,5.258955E0,5.6460876E0,8.54167E0,0E0,3.4963455E1,9.740347E0,7.2841797E0,8.418104E0,6.264936E0,6.064062E-1,3.2277222E0,6.170345E0,0E0,3.452073E0,1.5344757E1,2.1979939E1,3.3172474E0,0E0,5.2077637E0,7.4771595E0,5.3082905E0,2.9754608E0,8.796823E-1,8.646493E-1,0E0,0E0,1.4695129E0,0E0,1.0161033E0,0E0,0E0,0E0,8.423569E0,0E0,9.910495E0,8.803684E0,3.4054565E-1,0E0,5.3589478E0,9.189285E0,4.05015E-1,5.031954E0,0E0,3.4308624E-1,2.039686E0,0E0,0E0,0E0,0E0,0E0,0E0,0E0,0E0,0E0,0E0,0E0,0E0,0E0,0E0,0E0,0E0,0E0,0E0,0E0,0E0,0E0,0E0,0E0,0E0,0E0,0E0,0E0,0E0,0E0],"parents":[2147483647,0,0,1,1,2,2,3,3,4,4,5,5,6,6,7,7,8,8,9,9,11,11,12,12,13,13,14,14,15,15,16,16,17,17,18,18,20,20,21,21,22,22,23,23,25,25,26,26,27,27,28,28,29,29,30,30,33,33,35,35,39,39,41,41,42,42,43,43,45,45,46,46,47,47,48,48,50,50,51,51],"right_children":[2,4,6,8,10,12,14,16,18,20,-1,22,24,26,28,30,32,34,36,-1,38,40,42,44,-1,46,48,50,52,54,56,-1,-1,58,-1,60,-1,-1,-1,62,-1,64,66,68,-1,70,72,74,76,-1,78,80,-1,-1,-1,-1,-1,-1,-1,-1,-1,-1,-1,-1,-1,-1,-1,-1,-1,-1,-1,-1,-1,-1,-1,-1,-1,-1,-1,-1,-1],"split_conditions":[0E0,3E0,3.6101083E-3,2E0,1E0,1.8018018E-3,1E0,8.888889E-1,1E0,1.8285714E-1,1.1329724E-1,3E0,3.5260117E-1,1E0,1E0,5.1111114E-1,7E0,4E0,3.25E-1,8.081488E-2,9.74359E-1,1E0,3E0,2E0,7.787749E-2,1E0,3E0,2E0,1E0,1E0,5.6E-1,1.6602485E-2,1.0391494E-1,8.3E1,-2.842771E-2,1.6E1,-1.0300746E-1,-1.4987768E-1,2.063805E-2,2E0,-9.915588E-2,5E0,1E0,1E0,3.4053292E-2,3.0303031E-2,1.8018018E-3,2E0,2E0,-4.6173047E-2,3E0,1E0,-1.0916084E-1,9.660213E-3,8.872808E-2,-1.9771809E-2,-1.4518356E-1,1.1967597E-1,1.1060583E-2,-4.5134253E-3,9.837904E-2,1.0702292E-1,-3.0289054E-2,-8.435261E-2,6.807246E-2,7.248886E-2,-1.043696E-1,-1.2501824E-1,-3.3121075E-2,-7.6129094E-2,-1.1870666E-1,-1.9342852E-3,-1.0853856E-1,-1.7009785E-2,-1.0580217E-1,-7.950666E-2,1.1265856E-1,1.1723465E-1,2.3935111E-2,7.1672924E-2,-5.4644406E-2],"split_indices":[47,4,26,2,5,33,34,27,38,26,0,22,33,24,39,27,21,8,27,0,27,38,2,1,0,27,2,2,30,15,26,0,0,22,0,20,0,0,0,8,0,0,40,38,0,27,33,2,0,0,4,1,0,0,0,0,0,0,0,0,0,0,0,0,0,0,0,0,0,0,0,0,0,0,0,0,0,0,0,0,0],"split_type":[0,0,0,0,0,0,0,0,0,0,0,0,0,0,0,0,0,0,0,0,0,0,0,0,0,0,0,0,0,0,0,0,0,0,0,0,0,0,0,0,0,0,0,0,0,0,0,0,0,0,0,0,0,0,0,0,0,0,0,0,0,0,0,0,0,0,0,0,0,0,0,0,0,0,0,0,0,0,0,0,0],"sum_hessian":[1.047818E3,2.968401E2,7.509779E2,2.7810056E2,1.8739544E1,2.7310928E2,4.7786865E2,1.7393108E1,2.6070743E2,9.549538E0,9.190006E0,2.5007489E2,2.3034409E1,4.551522E2,2.2716446E1,7.9809713E0,9.412136E0,2.5411105E2,6.5963817E0,1.8705462E0,7.6789913E0,1.8454346E2,6.553143E1,2.064998E1,2.3844285E0,4.4472803E2,1.0424177E1,1.7166874E1,5.5495734E0,5.190405E0,2.7905667E0,1.338574E0,8.073563E0,2.5296915E2,1.1419175E0,4.774351E0,1.8220305E0,6.534644E0,1.1443473E0,1.8148578E2,3.0576842E0,2.5690708E1,3.984072E1,1.9582075E1,1.0679064E0,4.1055273E2,3.417529E1,5.6790795E0,4.7450976E0,1.8535519E0,1.5313322E1,3.2891078E0,2.2604656E0,3.0724058E0,2.117999E0,1.1493754E0,1.6411912E0,2.5150215E2,1.4669843E0,1.1009352E0,3.673416E0,1.7730444E2,4.1813264E0,2.120875E1,4.481959E0,3.7671757E1,2.168965E0,1.8285519E1,1.2965554E0,3.9854774E1,3.7069794E2,1.2681478E1,2.149381E1,1.0417713E0,4.637308E0,1.1110477E0,3.6340501E0,1.4305715E1,1.0076073E0,1.9883384E0,1.3007693E0],"tree_param":{"num_deleted":"0","num_feature":"48","num_nodes":"81","size_leaf_vector":"1"}},{"base_weights":[1.1170579E-4,1.0273377E0,-4.0038458E-1,-2.3600545E-2,1.0823643E0,5.624992E-1,-9.655574E-1,1.06917284E-1,-9.268386E-1,1.143946E0,3.089806E-1,-6.602842E-1,8.101851E-1,-1.0726523E0,-1.8932073E-1,-1.3240437E-1,7.213075E-2,1.1541673E0,2.2952376E-1,-8.4500104E-1,8.9993924E-1,-2.0821589E-1,-1.2077727E0,1.085026E0,4.300694E-1,-1.0948449E0,-1.821204E-1,1.1831E0,-5.8287376E-1,5.104136E-1,1.1709112E0,7.2041884E-2,-3.1890478E-2,6.432585E-2,-1.1893444E0,3.529605E-2,1.0848095E-1,1.254661E-1,-1.0301721E0,-1.4044634E0,2.2990105E-1,1.1267648E0,-5.578018E-1,-1.2128574E-1,7.309048E-1,-1.1216346E0,-7.258395E-1,-8.293797E-1,7.433694E-1,-7.1248405E-2,1.4295706E0,-9.634874E-1,1.4067009E-1,-1.11131884E-1,9.3057156E-2,3.2713972E-2,1.1734293E-1,-4.0221326E-2,-1.3691849E-1,-7.970775E-2,7.449555E-2,-1.7535783E-2,6.4840876E-2,-4.3023555E-3,-1.22274056E-1,-1.4406742E-1,-4.301389E-2,-1.7872445E-2,5.121667E-2,1.1452039E-1,3.8357389E-3,-1.2253374E-1,2.6026784E-2,-3.718208E-2,9.327265E-2,-3.4916975E-2,8.14415E-2,-1.1250218E-1,-6.7552323E-3,6.2288143E-2,-1.081802E-1,-1.05056144E-1,-6.313114E-3,-5.227759E-2,1.2539254E-1,1.7785062E-1,9.640511E-2,-1.03526644E-1,1.784082E-2,1.2888367E-1,-6.014333E-2],"categories":[],"categories_nodes":[],"categories_segments":[],"categories_sizes":[],"default_left":[0,0,0,0,0,0,0,0,0,0,0,0,0,0,0,0,0,0,0,0,0,0,0,0,0,0,0,0,0,0,0,0,0,0,0,0,0,0,0,0,0,0,0,0,0,0,0,0,0,0,0,0,0,0,0,0,0,0,0,0,0,0,0,0,0,0,0,0,0,0,0,0,0,0,0,0,0,0,0,0,0,0,0,0,0,0,0,0,0,0,0],"id":11,"left_children":[1,3,5,7,9,11,13,-1,15,17,19,21,23,25,27,-1,-1,29,31,33,35,37,39,41,43,45,47,49,51,53,55,-1,-1,-1,57,59,-1,61,63,65,67,69,71,73,75,77,79,81,83,-1,85,87,89,-1,-1,-1,-1,-1,-1,-1,-1,-1,-1,-1,-1,-1,-1,-1,-1,-1,-1,-1,-1,-1,-1,-1,-1,-1,-1,-1,-1,-1,-1,-1,-1,-1,-1,-1,-1,-1,-1],"loss_changes":[4.074665E2,1.6092468E1,3.883406E2,1.5601075E1,1.2221313E1,8.055198E1,3.7156555E1,0E0,6.6108785E0,2.0173645E0,1.4974598E1,1.0899166E1,2.2532364E1,7.601349E0,3.0774483E1,0E0,0E0,2.0026245E0,1.2925024E0,4.646886E0,2.242487E0,7.2288046E0,6.0258293E0,9.344345E0,1.568634E1,2.9909363E0,7.0841293E0,6.9721756E0,1.2240957E1,6.4090867E0,1.1404419E-1,0E0,0E0,0E0,3.6976814E-1,2.6890106E0,0E0,3.150233E0,1.3888149E0,1.1180878E-2,4.7059834E-1,2.4505005E0,2.4040413E0,9.339389E0,5.78487E0,1.1986694E0,1.4542207E1,1.0905552E0,3.8687756E0,0E0,1.712246E-1,2.5561008E0,1.4429464E1,0E0,0E0,0E0,0E0,0E0,0E0,0E0,0E0,0E0,0E0,0E0,0E0,0E0,0E0,0E0,0E0,0E0,0E0,0E0,0E0,0E0,0E0,0E0,0E0,0E0,0E0,0E0,0E0,0E0,0E0,0E0,0E0,0E0,0E0,0E0,0E0,0E0,0E0],"parents":[2147483647,0,0,1,1,2,2,3,3,4,4,5,5,6,6,8,8,9,9,10,10,11,11,12,12,13,13,14,14,17,17,18,18,19,19,20,20,21,21,22,22,23,23,24,24,25,25,26,26,27,27,28,28,29,29,30,30,34,34,35,35,37,37,38,38,39,39,40,40,41,41,42,42,43,43,44,44,45,45,46,46,47,47,48,48,50,50,51,51,52,52],"right_children":[2,4,6,8,10,12,14,-1,16,18,20,22,24,26,28,-1,-1,30,32,34,36,38,40,42,44,46,48,50,52,54,56,-1,-1,-1,58,60,-1,62,64,66,68,70,72,74,76,78,80,82,84,-1,86,88,90,-1,-1,-1,-1,-1,-1,-1,-1,-1,-1,-1,-1,-1,-1,-1,-1,-1,-1,-1,-1,-1,-1,-1,-1,-1,-1,-1,-1,-1,-1,-1,-1,-1,-1,-1,-1,-1,-1],"split_conditions":[0E0,1E0,3.6101083E-3,1E0,3E0,1E0,3.75E-1,1.06917284E-1,1E0,2E0,3E0,1.1235955E-2,1.1235955E-2,1E0,1.1235955E-2,-1.3240437E-1,7.213075E-2,0E0,8.8E1,3.6101083E-3,4E0,1E0,1E0,2E0,3E0,1E0,4E0,3E0,9.3421054E-1,3.9E1,1E0,7.2041884E-2,-3.1890478E-2,6.432585E-2,1E0,1E0,1.0848095E-1,7.5E1,1.5E1,5.6E1,6E0,4E0,1E0,2.5E1,0E0,2E2,1E0,1E0,7E0,-7.1248405E-2,1E0,2E1,3E0,-1.11131884E-1,9.3057156E-2,3.2713972E-2,1.1734293E-1,-4.0221326E-2,-1.3691849E-1,-7.970775E-2,7.449555E-2,-1.7535783E-2,6.4840876E-2,-4.3023555E-3,-1.22274056E-1,-1.4406742E-1,-4.301389E-2,-1.7872445E-2,5.121667E-2,1.1452039E-1,3.8357389E-3,-1.2253374E-1,2.6026784E-2,-3.718208E-2,9.327265E-2,-3.4916975E-2,8.14415E-2,-1.1250218E-1,-6.7552323E-3,6.2288143E-2,-1.081802E-1,-1.05056144E-1,-6.313114E-3,-5.227759E-2,1.2539254E-1,1.7785062E-1,9.640511E-2,-1.03526644E-1,1.784082E-2,1.2888367E-1,-6.014333E-2],"split_indices":[47,29,26,14,4,29,26,0,31,9,0,27,27,24,27,0,0,45,3,26,2,10,28,11,2,27,2,2,27,3,2,0,0,0,13,5,0,3,20,22,13,4,15,20,45,3,28,31,13,0,11,13,13,0,0,0,0,0,0,0,0,0,0,0,0,0,0,0,0,0,0,0,0,0,0,0,0,0,0,0,0,0,0,0,0,0,0,0,0,0,0],"split_type":[0,0,0,0,0,0,0,0,0,0,0,0,0,0,0,0,0,0,0,0,0,0,0,0,0,0,0,0,0,0,0,0,0,0,0,0,0,0,0,0,0,0,0,0,0,0,0,0,0,0,0,0,0,0,0,0,0,0,0,0,0,0,0,0,0,0,0,0,0,0,0,0,0,0,0,0,0,0,0,0,0,0,0,0,0,0,0,0,0,0,0],"sum_hessian":[9.884385E2,2.768319E2,7.1160657E2,1.3802042E1,2.6302988E2,2.6319928E2,4.484073E2,6.162587E0,7.6394544E0,2.4318666E2,1.9843222E1,4.4052704E1,2.1914656E2,3.9370694E2,5.470034E1,6.314338E0,1.3251163E0,2.4023912E2,2.9475296E0,6.5747123E0,1.3268509E1,2.4885082E1,1.9167622E1,1.26109314E2,9.303725E1,3.839102E2,9.796743E0,1.1743061E1,4.295728E1,6.888249E0,2.3335088E2,1.3898647E0,1.5576649E0,1.0722691E0,5.5024433E0,2.5470078E0,1.0721501E1,1.8302387E1,6.582694E0,1.6881178E1,2.2864442E0,1.2329104E2,2.8182774E0,3.305417E1,5.998308E1,3.560234E2,2.7886782E1,5.8260384E0,3.9707055E0,1.1336339E0,1.0609427E1,2.7932186E1,1.5025095E1,1.0788982E0,5.809351E0,1.083853E0,2.3226703E2,1.625297E0,3.8771462E0,1.115469E0,1.4315388E0,1.2040648E1,6.2617383E0,1.274213E0,5.308481E0,1.5814781E1,1.0663958E0,1.0839999E0,1.2024443E0,1.211858E2,2.1052396E0,1.2777817E0,1.5404956E0,2.722913E1,5.8250375E0,4.0766582E0,5.5906425E1,3.5481595E2,1.207476E0,5.666583E0,2.22202E1,4.2330894E0,1.5929492E0,1.1341512E0,2.8365543E0,4.4519444E0,6.1574826E0,2.636808E1,1.5641049E0,5.6094847E0,9.415611E0],"tree_param":{"num_deleted":"0","num_feature":"48","num_nodes":"91","size_leaf_vector":"1"}},{"base_weights":[-1.9195983E-2,9.862576E-1,-4.0697986E-1,3.542075E-2,1.0412574E0,5.3841347E-1,-9.589456E-1,1.0460396E-1,-8.289162E-1,5.147705E-1,1.1210488E0,-6.569873E-1,7.799472E-1,-1.0409607E0,6.9920707E-1,-1.2385459E-1,7.40739E-2,9.890867E-1,-5.3558016E-1,1.13617E0,3.5824603E-1,-9.718446E-1,3.1547552E-1,1.0581322E0,4.0947428E-1,-1.0778141E0,-6.077334E-1,-1.03118554E-1,9.13659E-1,-4.349203E-2,1.0877525E-1,-1.2545956E0,9.2115305E-2,1.14560865E-1,1.2181697E-1,9.7996354E-2,-6.629641E-2,5.1566315E-1,-1.1210102E0,8.798412E-1,-1.1778257E-1,1.0973574E0,-6.563226E-1,-6.784038E-1,5.4350245E-1,-6.791192E-1,-1.1175342E0,-7.6117736E-1,1.1043938E0,1.1099671E0,-4.638562E-2,-1.6128121E-1,3.6557138E-2,-1.5799167E-2,3.421096E-2,-1.2453834E-2,8.467396E-2,-1.2355077E-1,4.371102E-3,1.1107463E-1,2.8708263E-3,1.1143126E-1,5.118559E-2,-1.3453715E-1,3.1677842E-2,-9.723942E-2,8.260187E-2,3.073228E-2,1.0842669E-1,-1.0835438E-1,6.941981E-2,-1.12317644E-1,2.257633E-2,-8.380579E-2,7.300388E-2,1.4012447E-1,2.435889E-2,-3.567793E-4,1.19677655E-1,-7.468693E-2,8.420306E-2],"categories":[],"categories_nodes":[],"categories_segments":[],"categories_sizes":[],"default_left":[0,0,0,0,0,0,0,0,0,0,0,0,0,0,0,0,0,0,0,0,0,0,0,0,0,0,0,0,0,0,0,0,0,0,0,0,0,0,0,0,0,0,0,0,0,0,0,0,0,0,0,0,0,0,0,0,0,0,0,0,0,0,0,0,0,0,0,0,0,0,0,0,0,0,0,0,0,0,0,0,0],"id":12,"left_children":[1,3,5,7,9,11,13,-1,15,17,19,21,23,25,27,-1,-1,29,31,33,35,37,39,41,43,45,47,-1,49,-1,-1,51,-1,-1,53,-1,-1,55,57,59,-1,61,63,65,67,69,71,73,75,77,79,-1,-1,-1,-1,-1,-1,-1,-1,-1,-1,-1,-1,-1,-1,-1,-1,-1,-1,-1,-1,-1,-1,-1,-1,-1,-1,-1,-1,-1,-1],"loss_changes":[3.651386E2,1.3594742E1,3.5316718E2,1.4221782E1,9.772888E0,7.262531E1,5.880316E1,0E0,6.5746922E0,1.7605042E1,2.0509949E0,1.3327108E1,2.1027367E1,5.8482056E0,8.632927E0,0E0,0E0,3.8398876E0,1.300321E1,1.8566284E0,4.206886E0,7.7602444E0,1.0438034E1,8.675812E0,1.3627637E1,5.1652527E0,9.832306E0,0E0,3.6266565E0,0E0,0E0,5.230591E0,0E0,0E0,2.4150786E-1,0E0,0E0,8.7591463E-1,4.0192566E0,1.6717286E0,0E0,5.8148193E-1,2.619966E0,5.411513E0,1.0077791E1,2.0991941E1,2.8203125E0,4.2807903E0,4.8227453E-1,1.5305805E0,3.230389E0,0E0,0E0,0E0,0E0,0E0,0E0,0E0,0E0,0E0,0E0,0E0,0E0,0E0,0E0,0E0,0E0,0E0,0E0,0E0,0E0,0E0,0E0,0E0,0E0,0E0,0E0,0E0,0E0,0E0,0E0],"parents":[2147483647,0,0,1,1,2,2,3,3,4,4,5,5,6,6,8,8,9,9,10,10,11,11,12,12,13,13,14,14,17,17,18,18,19,19,20,20,21,21,22,22,23,23,24,24,25,25,26,26,28,28,31,31,34,34,37,37,38,38,39,39,41,41,42,42,43,43,44,44,45,45,46,46,47,47,48,48,49,49,50,50],"right_children":[2,4,6,8,10,12,14,-1,16,18,20,22,24,26,28,-1,-1,30,32,34,36,38,40,42,44,46,48,-1,50,-1,-1,52,-1,-1,54,-1,-1,56,58,60,-1,62,64,66,68,70,72,74,76,78,80,-1,-1,-1,-1,-1,-1,-1,-1,-1,-1,-1,-1,-1,-1,-1,-1,-1,-1,-1,-1,-1,-1,-1,-1,-1,-1,-1,-1,-1,-1],"split_conditions":[0E0,1E0,3.6101083E-3,1E0,1E0,1E0,1E0,1.0460396E-1,1E0,3E0,1E0,1E0,1.1235955E-2,1E0,1E0,-1.2385459E-1,7.40739E-2,2E0,1E0,7.4E1,1.5E-1,1E0,1E0,2E0,2E0,2.7522936E-2,1E0,-1.03118554E-1,1E0,-4.349203E-2,1.0877525E-1,1.5E1,9.2115305E-2,1.14560865E-1,5E0,9.7996354E-2,-6.629641E-2,1E0,7.7E1,5.1111114E-1,-1.1778257E-1,1E0,1.4E1,1E0,1E0,2.5333333E-1,4.3E1,1.9E1,1E0,2E0,3E0,-1.6128121E-1,3.6557138E-2,-1.5799167E-2,3.421096E-2,-1.2453834E-2,8.467396E-2,-1.2355077E-1,4.371102E-3,1.1107463E-1,2.8708263E-3,1.1143126E-1,5.118559E-2,-1.3453715E-1,3.1677842E-2,-9.723942E-2,8.260187E-2,3.073228E-2,1.0842669E-1,-1.0835438E-1,6.941981E-2,-1.12317644E-1,2.257633E-2,-8.380579E-2,7.300388E-2,1.4012447E-1,2.435889E-2,-3.567793E-4,1.19677655E-1,-7.468693E-2,8.420306E-2],"split_indices":[47,29,26,14,45,29,34,0,31,13,38,34,27,27,29,0,0,0,26,22,27,14,39,11,2,27,5,0,39,0,0,13,0,0,10,0,0,13,21,27,0,11,13,34,28,26,13,13,13,2,0,0,0,0,0,0,0,0,0,0,0,0,0,0,0,0,0,0,0,0,0,0,0,0,0,0,0,0,0,0,0],"split_type":[0,0,0,0,0,0,0,0,0,0,0,0,0,0,0,0,0,0,0,0,0,0,0,0,0,0,0,0,0,0,0,0,0,0,0,0,0,0,0,0,0,0,0,0,0,0,0,0,0,0,0,0,0,0,0,0,0,0,0,0,0,0,0,0,0,0,0,0,0,0,0,0,0,0,0,0,0,0,0,0,0],"sum_hessian":[9.344666E2,2.596633E2,6.7480334E2,1.4288461E1,2.4537483E2,2.487592E2,4.2604413E2,6.489935E0,7.7985253E0,3.3274113E1,2.1210072E2,4.1524715E1,2.0723448E2,4.0631906E2,1.9725048E1,6.351842E0,1.4466832E0,2.2962885E1,1.0311228E1,2.0749797E2,4.602743E0,3.1368935E1,1.015578E1,1.172993E2,8.993519E1,3.730932E2,3.3225864E1,1.7550715E0,1.7969976E1,1.2671118E0,2.1695774E1,6.996601E0,3.314627E0,2.054568E2,2.0411758E0,2.8860765E0,1.7166668E0,2.6350207E0,2.8733915E1,7.668442E0,2.4873383E0,1.1502751E2,2.271789E0,9.419275E0,8.051591E1,3.544153E1,3.3765167E2,3.1002762E1,2.2231033E0,1.4789653E1,3.1803231E0,5.7334776E0,1.263123E0,1.0237067E0,1.0174693E0,1.1108369E0,1.524184E0,2.6106726E1,2.6271894E0,5.79208E0,1.8763618E0,1.10912476E2,4.115038E0,1.1060433E0,1.1657457E0,8.175318E0,1.2439569E0,5.713182E1,2.3384089E1,2.7541815E1,7.8997145E0,3.3640253E2,1.2491492E0,2.9899288E1,1.1034726E0,1.1862065E0,1.0368968E0,1.1389421E0,1.3650711E1,1.867328E0,1.312995E0],"tree_param":{"num_deleted":"0","num_feature":"48","num_nodes":"81","size_leaf_vector":"1"}},{"base_weights":[1.8310356E-4,9.6477556E-1,-3.7212402E-1,1.0155727E0,9.318412E-2,5.132908E-1,-8.9977735E-1,3.2707796E-1,1.061587E0,-7.8115135E-1,1.0162634E-1,-3.7045974E-2,7.583033E-1,-9.757149E-1,5.5678743E-1,-3.9567074E-1,7.45166E-1,1.0830274E0,2.0724553E-1,-1.058842E0,-8.192415E-2,3.2996857E-1,-4.926661E-1,8.0583113E-1,-1.07031405E-1,-5.25462E-1,-1.0214945E0,8.35231E-1,-3.238281E-1,-9.704731E-1,7.7937E-2,-2.4859987E-3,8.543575E-1,1.0995206E0,6.256993E-1,7.5500816E-1,-9.5060706E-2,-3.3052325E-2,-1.15258925E-1,-7.135856E-2,4.912291E-2,-3.8909194E-1,6.872598E-1,-6.9058543E-1,1.04958E-1,8.622485E-1,-5.226306E-1,-1.0800549E0,6.5629846E-1,-1.0662102E0,-5.7073224E-1,-2.9977871E-2,9.8401266E-1,-9.263462E-2,5.8796085E-2,-1.1795008E-1,-1.8220427E-2,1.8590093E-2,9.322532E-2,1.1073621E-1,5.3542335E-2,-5.529899E-3,1.02313235E-1,9.485002E-2,8.860837E-3,-8.107685E-2,7.965137E-2,-7.212581E-2,7.77105E-2,3.7568767E-2,-8.3104625E-2,8.981949E-2,-2.78722E-2,-9.093708E-2,5.4680854E-2,-1.1492848E-1,-3.471161E-2,-7.115574E-2,1.1666256E-1,-1.0744876E-1,4.694844E-2,2.2532742E-3,-1.1505234E-1,3.4647696E-2,1.1188549E-1],"categories":[],"categories_nodes":[],"categories_segments":[],"categories_sizes":[],"default_left":[0,0,0,0,0,0,0,0,0,0,0,0,0,0,0,0,0,0,0,0,0,0,0,0,0,0,0,0,0,0,0,0,0,0,0,0,0,0,0,0,0,0,0,0,0,0,0,0,0,0,0,0,0,0,0,0,0,0,0,0,0,0,0,0,0,0,0,0,0,0,0,0,0,0,0,0,0,0,0,0,0,0,0,0,0],"id":13,"left_children":[1,3,5,7,9,11,13,15,17,19,-1,21,23,25,27,29,31,33,35,37,39,41,43,45,-1,47,49,51,53,55,-1,-1,57,59,61,63,-1,-1,-1,-1,-1,65,67,69,-1,71,73,75,77,79,81,-1,83,-1,-1,-1,-1,-1,-1,-1,-1,-1,-1,-1,-1,-1,-1,-1,-1,-1,-1,-1,-1,-1,-1,-1,-1,-1,-1,-1,-1,-1,-1,-1,-1],"loss_changes":[3.1458624E2,1.0705978E1,2.9574274E2,6.9523926E0,1.2525205E1,3.1937035E1,4.4387085E1,5.0932817E0,3.723526E0,1.4724817E0,0E0,1.2512231E1,1.5097595E1,7.2363586E0,5.2427435E0,5.12814E0,8.962693E-1,8.9616394E-1,4.848551E0,5.753994E-3,1.5693289E0,1.0930061E1,1.0904695E1,1.2458267E1,0E0,2.4868977E1,6.269745E0,2.9438887E0,3.616791E0,5.746527E-1,0E0,0E0,3.027625E-1,2.9792786E-1,2.663255E0,5.579345E-1,0E0,0E0,0E0,0E0,0E0,7.8525667E0,4.114934E0,4.82932E0,0E0,6.5690536E0,3.4541898E0,8.933029E-1,9.483366E0,4.436096E0,1.1359256E1,0E0,8.246269E-1,0E0,0E0,0E0,0E0,0E0,0E0,0E0,0E0,0E0,0E0,0E0,0E0,0E0,0E0,0E0,0E0,0E0,0E0,0E0,0E0,0E0,0E0,0E0,0E0,0E0,0E0,0E0,0E0,0E0,0E0,0E0,0E0],"parents":[2147483647,0,0,1,1,2,2,3,3,4,4,5,5,6,6,7,7,8,8,9,9,11,11,12,12,13,13,14,14,15,15,16,16,17,17,18,18,19,19,20,20,21,21,22,22,23,23,25,25,26,26,27,27,28,28,29,29,32,32,33,33,34,34,35,35,41,41,42,42,43,43,45,45,46,46,47,47,48,48,49,49,50,50,52,52],"right_children":[2,4,6,8,10,12,14,16,18,20,-1,22,24,26,28,30,32,34,36,38,40,42,44,46,-1,48,50,52,54,56,-1,-1,58,60,62,64,-1,-1,-1,-1,-1,66,68,70,-1,72,74,76,78,80,82,-1,84,-1,-1,-1,-1,-1,-1,-1,-1,-1,-1,-1,-1,-1,-1,-1,-1,-1,-1,-1,-1,-1,-1,-1,-1,-1,-1,-1,-1,-1,-1,-1,-1],"split_conditions":[0E0,4E0,3.6101083E-3,2E0,1E0,3E0,1E0,8.333333E-1,1E0,1.05E2,1.0162634E-1,2E0,1E0,3.0303031E-2,1E0,1E0,1.3E1,1E0,1.5E-1,5E0,4E0,1E0,3.4E1,5E0,-1.07031405E-1,1.965812E-1,1E0,2E0,3E0,1E0,7.7937E-2,-2.4859987E-3,1E0,3E0,1E0,6E0,-9.5060706E-2,-3.3052325E-2,-1.15258925E-1,-7.135856E-2,4.912291E-2,1E0,1E0,0E0,1.04958E-1,4E0,1.34E2,1E0,2E0,1.99E2,3E0,-2.9977871E-2,3E0,-9.263462E-2,5.8796085E-2,-1.1795008E-1,-1.8220427E-2,1.8590093E-2,9.322532E-2,1.1073621E-1,5.3542335E-2,-5.529899E-3,1.02313235E-1,9.485002E-2,8.860837E-3,-8.107685E-2,7.965137E-2,-7.212581E-2,7.77105E-2,3.7568767E-2,-8.3104625E-2,8.981949E-2,-2.78722E-2,-9.093708E-2,5.4680854E-2,-1.1492848E-1,-3.471161E-2,-7.115574E-2,1.1666256E-1,-1.0744876E-1,4.694844E-2,2.2532742E-3,-1.1505234E-1,3.4647696E-2,1.1188549E-1],"split_indices":[47,4,26,2,5,2,34,26,38,3,0,13,38,27,39,15,20,10,27,4,2,46,20,4,0,26,27,2,0,46,0,0,2,4,24,13,0,0,0,0,0,34,2,46,0,10,3,5,2,3,4,0,0,0,0,0,0,0,0,0,0,0,0,0,0,0,0,0,0,0,0,0,0,0,0,0,0,0,0,0,0,0,0,0,0],"split_type":[0,0,0,0,0,0,0,0,0,0,0,0,0,0,0,0,0,0,0,0,0,0,0,0,0,0,0,0,0,0,0,0,0,0,0,0,0,0,0,0,0,0,0,0,0,0,0,0,0,0,0,0,0,0,0,0,0,0,0,0,0,0,0,0,0,0,0,0,0,0,0,0,0,0,0,0,0,0,0,0,0,0,0,0,0],"sum_hessian":[8.7398096E2,2.4294783E2,6.3103314E2,2.2941231E2,1.3535531E1,2.3564407E2,3.9538907E2,1.4879802E1,2.145325E2,7.0302615E0,6.5052695E0,7.285316E1,1.6279091E2,3.7611078E2,1.927829E1,5.472724E0,9.407078E0,2.0901933E2,5.513166E0,4.6637855E0,2.366476E0,4.050281E1,3.2350346E1,1.5921213E2,3.5787826E0,3.5863426E1,3.4024738E2,1.4686176E1,4.5921144E0,3.7919064E0,1.6808177E0,1.2641973E0,8.14288E0,2.0038821E2,8.631128E0,3.978786E0,1.5343801E0,1.0479538E0,3.6158316E0,1.0092183E0,1.3572576E0,1.3415224E1,2.7087587E1,2.9160364E1,3.1899831E0,1.5306277E2,6.1493564E0,2.4467188E1,1.139624E1,3.0829874E2,3.1948624E1,1.5843982E0,1.3101778E1,2.755374E0,1.8367406E0,2.6048515E0,1.1870548E0,1.2033088E0,6.939572E0,1.9669092E2,3.6972933E0,3.4980717E0,5.1330566E0,2.7554185E0,1.2233675E0,1.0128901E1,3.2863233E0,1.2028291E0,2.5884758E1,3.1992648E0,2.5961098E1,1.4859407E2,4.4686947E0,4.6261E0,1.5232565E0,2.1836561E1,2.6306257E0,2.9893682E0,8.406872E0,3.0694464E2,1.3541043E0,1.626588E1,1.5682745E1,2.910482E0,1.0191296E1],"tree_param":{"num_deleted":"0","num_feature":"48","num_nodes":"85","size_leaf_vector":"1"}},{"base_weights":[2.2230125E-3,9.4812626E-1,-3.566931E-1,-4.0109295E-2,9.986953E-1,5.052536E-1,-8.792614E-1,9.830784E-2,-9.0604204E-1,1.0726467E0,4.596349E-1,-5.260706E-1,7.170586E-1,-9.5746005E-1,5.397945E-1,-1.20068036E-1,-3.091301E-1,1.0903336E0,2.327284E-1,8.800267E-1,-8.090345E-1,-8.597053E-1,3.671786E-1,8.4773755E-1,-8.004018E-1,-5.092685E-1,-1.007181E0,-7.449761E-2,6.977972E-1,1.646927E-2,-6.939064E-2,1.0973018E0,-2.1180238E-3,7.052433E-2,-5.2108325E-2,9.887671E-1,-3.937618E-2,-1.417671E0,5.3783596E-2,6.25821E-1,-1.0437434E0,8.7128776E-1,-1.102848E-1,8.8435674E-1,-9.733807E-2,-1.0192899E0,5.2813645E-2,-1.061198E0,6.109144E-1,-1.0452191E0,-5.87269E-1,-8.9981504E-2,8.57705E-1,6.369281E-2,1.1165211E-1,1.0861572E-1,5.8321822E-2,-1.823666E-1,-1.0404321E-2,6.4053372E-3,8.321914E-2,-1.2398373E-1,-3.940518E-2,1.08487956E-1,7.323365E-3,9.682981E-2,1.9355623E-2,-1.243787E-1,2.0958578E-2,-1.12714306E-1,-4.316235E-2,-8.137315E-2,1.31261E-1,-1.06294475E-1,-3.26888E-2,-5.3483406E-3,-1.115694E-1,1.8075705E-2,1.0699278E-1],"categories":[],"categories_nodes":[],"categories_segments":[],"categories_sizes":[],"default_left":[0,0,0,0,0,0,0,0,0,0,0,0,0,0,0,0,0,0,0,0,0,0,0,0,0,0,0,0,0,0,0,0,0,0,0,0,0,0,0,0,0,0,0,0,0,0,0,0,0,0,0,0,0,0,0,0,0,0,0,0,0,0,0,0,0,0,0,0,0,0,0,0,0,0,0,0,0,0,0],"id":14,"left_children":[1,3,5,7,9,11,13,-1,15,17,19,21,23,25,27,-1,29,31,33,35,37,39,41,43,45,47,49,-1,51,-1,-1,53,-1,-1,-1,55,-1,57,-1,59,61,63,-1,65,-1,67,-1,69,71,73,75,-1,77,-1,-1,-1,-1,-1,-1,-1,-1,-1,-1,-1,-1,-1,-1,-1,-1,-1,-1,-1,-1,-1,-1,-1,-1,-1,-1],"loss_changes":[2.812661E2,1.1428497E1,2.7096515E2,1.1571519E1,8.150818E0,5.003292E1,4.204883E1,0E0,8.686676E-1,2.5676575E0,1.5596153E1,1.2030109E1,3.81597E1,7.399872E0,4.6177087E0,0E0,7.8456044E-1,1.461853E0,2.215482E0,3.359129E0,6.8835444E0,8.559128E0,9.401451E0,1.2498611E1,5.046007E0,2.3821316E1,4.4750977E0,0E0,5.496052E0,0E0,0E0,9.221802E-1,0E0,0E0,0E0,1.5800476E-1,0E0,2.6997995E0,0E0,3.8872182E-1,2.8372307E0,1.4615021E0,0E0,9.762817E0,0E0,4.026312E0,0E0,5.711365E-1,1.4070101E1,3.355957E0,8.048569E0,0E0,2.2951307E0,0E0,0E0,0E0,0E0,0E0,0E0,0E0,0E0,0E0,0E0,0E0,0E0,0E0,0E0,0E0,0E0,0E0,0E0,0E0,0E0,0E0,0E0,0E0,0E0,0E0,0E0],"parents":[2147483647,0,0,1,1,2,2,3,3,4,4,5,5,6,6,8,8,9,9,10,10,11,11,12,12,13,13,14,14,16,16,17,17,18,18,19,19,20,20,21,21,22,22,23,23,24,24,25,25,26,26,28,28,31,31,35,35,37,37,39,39,40,40,41,41,43,43,45,45,47,47,48,48,49,49,50,50,52,52],"right_children":[2,4,6,8,10,12,14,-1,16,18,20,22,24,26,28,-1,30,32,34,36,38,40,42,44,46,48,50,-1,52,-1,-1,54,-1,-1,-1,56,-1,58,-1,60,62,64,-1,66,-1,68,-1,70,72,74,76,-1,78,-1,-1,-1,-1,-1,-1,-1,-1,-1,-1,-1,-1,-1,-1,-1,-1,-1,-1,-1,-1,-1,-1,-1,-1,-1,-1],"split_conditions":[0E0,1E0,3.6101083E-3,1E0,1E0,1E0,1E0,9.830784E-2,8.4210527E-1,1E0,5E0,1E0,1.8018018E-3,3.0303031E-2,2E0,-1.20068036E-1,4E0,4E0,2.3529412E-1,3E0,1E0,1E0,1E0,1E0,2.647059E-1,1.965812E-1,1E0,-7.449761E-2,1E0,1.646927E-2,-6.939064E-2,2E0,-2.1180238E-3,7.052433E-2,-5.2108325E-2,3.1847134E-3,-3.937618E-2,1.1E1,5.3783596E-2,5.3E1,1E0,5.1111114E-1,-1.102848E-1,1E0,-9.733807E-2,1E0,5.2813645E-2,1E0,1E0,1E0,3E0,-8.9981504E-2,3.1578946E-1,6.369281E-2,1.1165211E-1,1.0861572E-1,5.8321822E-2,-1.823666E-1,-1.0404321E-2,6.4053372E-3,8.321914E-2,-1.2398373E-1,-3.940518E-2,1.08487956E-1,7.323365E-3,9.682981E-2,1.9355623E-2,-1.243787E-1,2.0958578E-2,-1.12714306E-1,-4.316235E-2,-8.137315E-2,1.31261E-1,-1.06294475E-1,-3.26888E-2,-5.3483406E-3,-1.115694E-1,1.8075705E-2,1.0699278E-1],"split_indices":[47,29,26,14,31,29,34,0,27,38,13,34,33,27,0,0,13,9,27,4,27,14,39,38,33,26,27,0,29,0,0,2,0,0,0,33,0,13,0,3,39,27,0,11,0,28,0,5,29,24,4,0,26,0,0,0,0,0,0,0,0,0,0,0,0,0,0,0,0,0,0,0,0,0,0,0,0,0,0],"split_type":[0,0,0,0,0,0,0,0,0,0,0,0,0,0,0,0,0,0,0,0,0,0,0,0,0,0,0,0,0,0,0,0,0,0,0,0,0,0,0,0,0,0,0,0,0,0,0,0,0,0,0,0,0,0,0,0,0,0,0,0,0,0,0,0,0,0,0,0,0,0,0,0,0,0,0,0,0,0,0],"sum_hessian":[8.264757E2,2.2688676E2,5.995889E2,1.1054929E1,2.1583183E2,2.2632004E2,3.7326892E2,5.005334E0,6.049595E0,1.8892426E2,2.6907585E1,3.830772E1,1.8801231E2,3.5408212E2,1.9186811E1,3.373121E0,2.6764736E0,1.84736E2,4.18826E0,2.0440628E1,6.466956E0,2.7917786E1,1.0389933E1,1.735114E2,1.4500915E1,3.6480896E1,3.1760123E2,1.6943716E0,1.7492441E1,1.455775E0,1.2206986E0,1.8359776E2,1.1382223E0,2.6140897E0,1.5741702E0,1.9039066E1,1.4015628E0,4.41796E0,2.048996E0,2.8128014E0,2.5104984E1,8.040083E0,2.3498495E0,1.7059544E2,2.9159565E0,1.2649565E1,1.8513504E0,2.4474586E1,1.20063095E1,2.898553E2,2.7745934E1,1.170553E0,1.6321888E1,8.725681E0,1.7487209E2,1.3999042E1,5.0400243E0,3.0783014E0,1.3396587E0,1.1077473E0,1.7050538E0,1.8586689E1,6.5182962E0,6.059033E0,1.98105E0,1.5175368E2,1.884177E1,1.0685371E1,1.9641925E0,2.1438662E1,3.0359247E0,3.9094088E0,8.0969E0,2.8240683E2,7.448459E0,1.43507805E1,1.3395153E1,4.3375893E0,1.1984299E1],"tree_param":{"num_deleted":"0","num_feature":"48","num_nodes":"79","size_leaf_vector":"1"}},{"base_weights":[1.207399E-3,9.155521E-1,-3.3670908E-1,-4.794775E-2,9.762191E-1,4.6578375E-1,-8.5529894E-1,9.686889E-2,-8.0015135E-1,4.3510896E-1,1.0656793E0,-4.55791E-1,6.6648984E-1,-9.573445E-1,-1.714018E-1,6.478155E-2,-1.12996675E-1,-1.3635182E-1,1.0743938E-1,1.0818868E0,2.0750019E-1,-3.6729034E-2,-1.0127652E0,9.7537917E-1,2.8594458E-1,-9.979374E-1,-3.6089694E-1,1.0564146E0,-4.7950625E-1,7.720825E-1,-4.9431235E-1,1.089703E0,3.943646E-3,8.491925E-2,-7.523384E-2,3.03003E-1,-1.0133853E-1,-1.2755765E0,5.577969E-1,1.0225587E0,-7.069101E-1,2.658225E-2,9.493171E-1,-1.0106368E0,5.401315E-2,-5.5088943E-1,8.6957896E-1,-6.344838E-2,1.3665424E-1,-7.604609E-1,1.0301476E-1,1.7670082E-2,8.775714E-2,-1.01170555E-1,7.896092E-2,1.0930174E-1,2.8051702E-2,-2.6218979E-2,6.733029E-2,-1.3233382E-1,-3.1152813E-2,1.2226808E-2,7.12551E-2,1.0444708E-1,1.6866075E-2,-1.08471654E-1,3.0124576E-3,-8.800714E-2,3.719404E-2,1.2133209E-1,-1.9535977E-2,-1.0169665E-1,3.1754386E-2,-7.0609204E-2,9.225457E-2,2.5803214E-2,1.03929065E-1,-1.781008E-2,-9.958457E-2,-6.8982355E-2,4.3049093E-2],"categories":[],"categories_nodes":[],"categories_segments":[],"categories_sizes":[],"default_left":[0,0,0,0,0,0,0,0,0,0,0,0,0,0,0,0,0,0,0,0,0,0,0,0,0,0,0,0,0,0,0,0,0,0,0,0,0,0,0,0,0,0,0,0,0,0,0,0,0,0,0,0,0,0,0,0,0,0,0,0,0,0,0,0,0,0,0,0,0,0,0,0,0,0,0,0,0,0,0,0,0],"id":15,"left_children":[1,3,5,7,9,11,13,-1,15,17,19,21,23,25,27,-1,-1,29,-1,31,33,35,37,39,41,43,45,47,49,51,53,55,-1,-1,-1,57,-1,59,61,63,65,67,69,71,-1,73,75,-1,-1,77,79,-1,-1,-1,-1,-1,-1,-1,-1,-1,-1,-1,-1,-1,-1,-1,-1,-1,-1,-1,-1,-1,-1,-1,-1,-1,-1,-1,-1,-1,-1],"loss_changes":[2.3748631E2,1.2170563E1,2.3396002E2,1.0899431E1,8.984177E0,4.117294E1,2.3652618E1,0E0,4.6274323E0,1.0879587E1,2.0954285E0,9.324516E0,2.1096489E1,6.8243713E0,1.7729553E1,0E0,0E0,5.714665E0,0E0,1.2889252E0,3.3051798E0,8.245678E0,7.804079E0,8.656532E0,1.423595E1,5.961609E0,5.265751E0,5.8199806E0,6.1473856E0,1.6059446E-1,9.018827E0,1.2841797E-1,0E0,0E0,0E0,4.052784E0,0E0,2.7953148E-1,1.2578988E-1,1.6507492E0,9.5662403E-1,1.9308243E1,7.269005E0,2.6377258E0,0E0,4.8474073E0,5.63128E-2,0E0,0E0,3.268282E0,3.6583548E0,0E0,0E0,0E0,0E0,0E0,0E0,0E0,0E0,0E0,0E0,0E0,0E0,0E0,0E0,0E0,0E0,0E0,0E0,0E0,0E0,0E0,0E0,0E0,0E0,0E0,0E0,0E0,0E0,0E0,0E0],"parents":[2147483647,0,0,1,1,2,2,3,3,4,4,5,5,6,6,8,8,9,9,10,10,11,11,12,12,13,13,14,14,17,17,19,19,20,20,21,21,22,22,23,23,24,24,25,25,26,26,27,27,28,28,29,29,30,30,31,31,35,35,37,37,38,38,39,39,40,40,41,41,42,42,43,43,45,45,46,46,49,49,50,50],"right_children":[2,4,6,8,10,12,14,-1,16,18,20,22,24,26,28,-1,-1,30,-1,32,34,36,38,40,42,44,46,48,50,52,54,56,-1,-1,-1,58,-1,60,62,64,66,68,70,72,-1,74,76,-1,-1,78,80,-1,-1,-1,-1,-1,-1,-1,-1,-1,-1,-1,-1,-1,-1,-1,-1,-1,-1,-1,-1,-1,-1,-1,-1,-1,-1,-1,-1,-1,-1],"split_conditions":[0E0,1E0,3.6101083E-3,1E0,1E0,1E0,3.75E-1,9.686889E-2,1E0,1E0,1E0,1.1235955E-2,1.1235955E-2,1E0,3.783784E-1,6.478155E-2,-1.12996675E-1,1.4583333E-1,1.0743938E-1,4E0,1.5E-1,1E0,1E0,2E0,1E0,1.99E2,9.89899E-1,2E0,3E0,1.5E1,1E0,3E0,3.943646E-3,8.491925E-2,-7.523384E-2,3E0,-1.0133853E-1,4E0,4E0,4E0,1E0,1.5E-1,8.888889E-1,7E0,5.401315E-2,1E0,1.7582418E-1,-6.344838E-2,1.3665424E-1,5.1E1,1E0,1.7670082E-2,8.775714E-2,-1.01170555E-1,7.896092E-2,1.0930174E-1,2.8051702E-2,-2.6218979E-2,6.733029E-2,-1.3233382E-1,-3.1152813E-2,1.2226808E-2,7.12551E-2,1.0444708E-1,1.6866075E-2,-1.08471654E-1,3.0124576E-3,-8.800714E-2,3.719404E-2,1.2133209E-1,-1.9535977E-2,-1.0169665E-1,3.1754386E-2,-7.0609204E-2,9.225457E-2,2.5803214E-2,1.03929065E-1,-1.781008E-2,-9.958457E-2,-6.8982355E-2,4.3049093E-2],"split_indices":[47,29,26,14,45,29,26,0,45,26,38,27,27,5,26,0,0,27,0,9,27,8,28,11,28,3,27,0,0,21,27,11,0,0,0,2,0,11,0,4,15,27,27,11,0,24,26,0,0,3,29,0,0,0,0,0,0,0,0,0,0,0,0,0,0,0,0,0,0,0,0,0,0,0,0,0,0,0,0,0,0],"split_type":[0,0,0,0,0,0,0,0,0,0,0,0,0,0,0,0,0,0,0,0,0,0,0,0,0,0,0,0,0,0,0,0,0,0,0,0,0,0,0,0,0,0,0,0,0,0,0,0,0,0,0,0,0,0,0,0,0,0,0,0,0,0,0,0,0,0,0,0,0,0,0,0,0,0,0,0,0,0,0,0,0],"sum_hessian":[7.666357E2,2.0641156E2,5.602241E2,1.2239309E1,1.9417226E2,2.1995546E2,3.4026865E2,5.082408E0,7.156902E0,2.8379469E1,1.6579279E2,3.9109024E1,1.8084644E2,2.9574078E2,4.4527863E1,1.1488786E0,6.0080233E0,1.5400011E1,1.2979457E1,1.6246382E2,3.328964E0,2.2925812E1,1.6183214E1,9.89585E1,8.188793E1,2.7626562E2,1.947517E1,8.445047E0,3.6082817E1,4.0259748E0,1.1374036E1,1.6120976E2,1.2540598E0,2.0642214E0,1.2647427E0,1.7520887E1,5.4049244E0,1.4024273E1,2.158941E0,9.6640396E1,2.318104E0,5.9618595E1,2.2269335E1,2.7434335E2,1.9222698E0,1.7348724E1,2.126446E0,1.1467555E0,7.298291E0,2.4136244E1,1.1946573E1,1.0085819E0,3.0173929E0,8.258183E0,3.1158535E0,1.6020284E2,1.0069325E0,7.050929E0,1.0469958E1,1.3007172E1,1.0171016E0,1.0353123E0,1.1236289E0,9.4004944E1,2.6354566E0,1.2206591E0,1.0974448E0,1.6018263E1,4.3600334E1,1.8047062E1,4.222272E0,2.7327533E2,1.0680127E0,1.6166616E1,1.1821072E0,1.0094312E0,1.1170149E0,7.453168E0,1.6683077E1,3.1686375E0,8.777936E0],"tree_param":{"num_deleted":"0","num_feature":"48","num_nodes":"81","size_leaf_vector":"1"}},{"base_weights":[1.6187638E-2,9.0969354E-1,-3.1170282E-1,9.7560686E-1,7.481364E-2,4.465893E-1,-8.147424E-1,9.9244577E-1,-9.0854995E-2,-6.2496096E-1,9.7868726E-2,5.778607E-1,-7.565119E-1,-8.938083E-1,5.400524E-1,1.0271995E0,2.2473216E-1,-9.018659E-1,6.801598E-2,8.388747E-1,-1.2398901E-2,-9.9003404E-1,6.049402E-1,-9.3671465E-1,-3.1921864E-1,-8.249968E-2,6.7413425E-1,9.793344E-2,1.0419673E0,-5.768381E-1,9.499949E-2,-1.1665276E0,-1.5120074E-1,8.858919E-1,-9.2775896E-2,-3.505242E-1,7.225082E-1,-1.1097519E0,4.3775473E-2,7.329622E-3,7.9357125E-2,-1.0086322E0,-6.4236635E-1,-6.86153E-1,3.8700452E-1,9.662393E-1,-7.1999945E-2,-1.9364223E-2,4.003313E-2,1.0527604E-1,5.1599413E-2,-1.05226934E-1,3.4963142E-2,-2.269197E-2,-1.3540983E-1,3.2911915E-2,-6.0086604E-2,1.0098207E-1,1.52334245E-2,-5.55468E-2,7.7925466E-2,9.287926E-2,-8.544097E-2,-1.21865295E-1,-2.3783555E-2,-1.0226899E-1,5.7913817E-2,6.7565106E-2,-8.192948E-2,-8.677215E-2,4.593059E-2,7.737022E-2,-6.6287205E-2,1.07137896E-1,-7.6776627E-3,4.49156E-2,-8.3757006E-2],"categories":[],"categories_nodes":[],"categories_segments":[],"categories_sizes":[],"default_left":[0,0,0,0,0,0,0,0,0,0,0,0,0,0,0,0,0,0,0,0,0,0,0,0,0,0,0,0,0,0,0,0,0,0,0,0,0,0,0,0,0,0,0,0,0,0,0,0,0,0,0,0,0,0,0,0,0,0,0,0,0,0,0,0,0,0,0,0,0,0,0,0,0,0,0,0,0],"id":16,"left_children":[1,3,5,7,9,11,13,15,-1,17,-1,19,21,23,25,27,29,31,-1,33,35,37,39,41,43,-1,45,47,49,51,-1,53,55,57,-1,59,61,63,-1,-1,-1,65,67,69,71,73,75,-1,-1,-1,-1,-1,-1,-1,-1,-1,-1,-1,-1,-1,-1,-1,-1,-1,-1,-1,-1,-1,-1,-1,-1,-1,-1,-1,-1,-1,-1],"loss_changes":[2.1247926E2,1.0640976E1,2.0275894E2,6.6241302E0,1.030754E1,3.3959175E1,3.468956E1,4.5515747E0,0E0,3.9564664E0,0E0,2.958197E1,7.375266E0,7.1489563E0,3.8931808E0,2.247406E0,5.805071E0,1.4251652E0,0E0,1.1877747E1,1.5122334E1,3.6604652E0,3.1703246E-1,5.291992E0,6.098362E0,0E0,3.807816E0,4.1097826E-1,4.128723E-1,2.5340075E0,0E0,7.168808E-1,8.9974785E-1,1.1679268E1,0E0,1.00777855E1,7.033414E0,1.3641186E0,0E0,0E0,0E0,5.5864105E0,1.4043869E1,3.5542307E0,3.896959E0,1.4415913E0,2.6728477E0,0E0,0E0,0E0,0E0,0E0,0E0,0E0,0E0,0E0,0E0,0E0,0E0,0E0,0E0,0E0,0E0,0E0,0E0,0E0,0E0,0E0,0E0,0E0,0E0,0E0,0E0,0E0,0E0,0E0,0E0],"parents":[2147483647,0,0,1,1,2,2,3,3,4,4,5,5,6,6,7,7,9,9,11,11,12,12,13,13,14,14,15,15,16,16,17,17,19,19,20,20,21,21,22,22,23,23,24,24,26,26,27,27,28,28,29,29,31,31,32,32,33,33,35,35,36,36,37,37,41,41,42,42,43,43,44,44,45,45,46,46],"right_children":[2,4,6,8,10,12,14,16,-1,18,-1,20,22,24,26,28,30,32,-1,34,36,38,40,42,44,-1,46,48,50,52,-1,54,56,58,-1,60,62,64,-1,-1,-1,66,68,70,72,74,76,-1,-1,-1,-1,-1,-1,-1,-1,-1,-1,-1,-1,-1,-1,-1,-1,-1,-1,-1,-1,-1,-1,-1,-1,-1,-1,-1,-1,-1,-1],"split_conditions":[0E0,3E0,3.6101083E-3,5E0,1E0,1.8018018E-3,1E0,6E0,-9.0854995E-2,6E0,9.7868726E-2,3E0,2.647059E-1,1E0,6.741573E-2,1E0,1E0,7.878788E-1,6.801598E-2,1E0,1.33E2,2E0,4E0,2.5641027E-1,1.7582418E-1,-8.249968E-2,2E0,6.4E-1,1E0,1E1,9.499949E-2,4.4E1,2E1,3.4285715E-1,-9.2775896E-2,1E0,7E0,1E0,4.3775473E-2,7.329622E-3,7.9357125E-2,1.99E2,2.7522936E-2,1.8E1,8.2E1,6.126761E-1,1.8018018E-3,-1.9364223E-2,4.003313E-2,1.0527604E-1,5.1599413E-2,-1.05226934E-1,3.4963142E-2,-2.269197E-2,-1.3540983E-1,3.2911915E-2,-6.0086604E-2,1.0098207E-1,1.52334245E-2,-5.55468E-2,7.7925466E-2,9.287926E-2,-8.544097E-2,-1.21865295E-1,-2.3783555E-2,-1.0226899E-1,5.7913817E-2,6.7565106E-2,-8.192948E-2,-8.677215E-2,4.593059E-2,7.737022E-2,-6.6287205E-2,1.07137896E-1,-7.6776627E-3,4.49156E-2,-8.3757006E-2],"split_indices":[47,4,26,8,5,33,34,22,0,2,0,22,33,5,26,2,24,27,0,38,3,1,2,26,26,0,4,26,38,13,0,21,20,27,0,28,10,28,0,0,0,3,27,13,3,26,33,0,0,0,0,0,0,0,0,0,0,0,0,0,0,0,0,0,0,0,0,0,0,0,0,0,0,0,0,0,0],"split_type":[0,0,0,0,0,0,0,0,0,0,0,0,0,0,0,0,0,0,0,0,0,0,0,0,0,0,0,0,0,0,0,0,0,0,0,0,0,0,0,0,0,0,0,0,0,0,0,0,0,0,0,0,0,0,0,0,0,0,0,0,0,0,0,0,0,0,0,0,0,0,0,0,0,0,0,0,0],"sum_hessian":[7.2328656E2,1.9369385E2,5.295927E2,1.7936455E2,1.4329296E1,2.1125494E2,3.1833777E2,1.7824483E2,1.1197264E0,8.250429E0,6.0788674E0,1.909409E2,2.0314037E1,3.011055E2,1.7232271E1,1.7020193E2,8.042893E0,7.0612383E0,1.1891906E0,1.3210335E2,5.8837566E1,1.7572702E1,2.741335E0,2.7959692E2,2.1508577E1,1.0803725E0,1.61519E1,2.7819004E0,1.6742003E2,3.9176755E0,4.1252184E0,4.8110247E0,2.2502131E0,1.291643E2,2.9390357E0,4.065537E1,1.8182198E1,1.6418762E1,1.1539397E0,1.0815705E0,1.6597643E0,2.2274696E2,5.6849968E1,1.417306E1,7.335518E0,1.139562E1,4.756279E0,1.5993918E0,1.1825086E0,1.630722E2,4.347823E0,2.499326E0,1.4183495E0,1.168313E0,3.6427119E0,1.217642E0,1.0325713E0,1.1017457E2,1.8989738E1,3.484311E1,5.812262E0,1.6442307E1,1.7398916E0,1.4242253E1,2.1765091E0,2.211449E2,1.6020651E0,6.3946476E0,5.045532E1,1.2443147E1,1.7299141E0,5.553185E0,1.7823328E0,1.032739E1,1.0682304E0,3.0757742E0,1.6805047E0],"tree_param":{"num_deleted":"0","num_feature":"48","num_nodes":"77","size_leaf_vector":"1"}},{"base_weights":[1.2333344E-3,8.706944E-1,-3.1548607E-1,-1.8124154E-2,9.225998E-1,5.192937E-1,-6.190584E-1,-6.7751616E-1,9.210255E-2,9.925132E-1,3.5206416E-1,-3.3745784E-1,7.4917316E-1,-7.122688E-1,4.8271158E-1,-1.0418321E-1,6.291381E-2,4.1218445E-1,1.0281453E0,-2.896504E-1,1.01404905E-1,-6.688639E-1,1.030785E-1,1.044449E0,3.046423E-1,-8.033031E-1,3.0216643E-1,-7.253454E-1,8.0797315E-1,6.8239915E-1,-2.5896335E-1,1.0489526E0,2.5666368E-1,-6.130414E-1,8.0345295E-2,-9.592934E-1,3.3500865E-1,1.1000873E0,6.9408245E-2,-4.2712402E-1,6.341922E-1,-5.801136E-1,-1.0413923E0,6.636633E-1,-5.3148115E-1,-1.0814047E0,6.388734E-2,9.62894E-1,-5.911172E-2,8.672704E-2,-1.4963082E-2,-7.076697E-2,2.9778136E-2,1.0784345E-1,6.819362E-2,8.4146254E-2,-4.540331E-2,-9.306486E-2,7.7095665E-2,-1.09494664E-1,1.0153444E-2,-3.516033E-2,6.1795253E-2,1.1140584E-1,1.4517598E-2,-5.672585E-2,8.017637E-2,-7.053914E-2,7.391325E-2,7.040145E-2,-6.438098E-2,-2.2020405E-3,-8.3645664E-2,-1.0638173E-1,-1.6042069E-2,-3.952389E-2,9.741171E-2,4.4154044E-2,-9.0998076E-2,-1.2252229E-1,-3.0366315E-2,1.0496831E-1,1.9657483E-2],"categories":[],"categories_nodes":[],"categories_segments":[],"categories_sizes":[],"default_left":[0,0,0,0,0,0,0,0,0,0,0,0,0,0,0,0,0,0,0,0,0,0,0,0,0,0,0,0,0,0,0,0,0,0,0,0,0,0,0,0,0,0,0,0,0,0,0,0,0,0,0,0,0,0,0,0,0,0,0,0,0,0,0,0,0,0,0,0,0,0,0,0,0,0,0,0,0,0,0,0,0,0,0],"id":17,"left_children":[1,3,5,7,9,11,13,15,-1,17,19,21,23,25,27,-1,-1,29,31,33,-1,35,-1,37,39,41,43,45,47,49,51,53,55,57,-1,59,61,63,65,67,69,71,73,75,77,79,-1,81,-1,-1,-1,-1,-1,-1,-1,-1,-1,-1,-1,-1,-1,-1,-1,-1,-1,-1,-1,-1,-1,-1,-1,-1,-1,-1,-1,-1,-1,-1,-1,-1,-1,-1,-1],"loss_changes":[1.8578789E2,8.327484E0,1.2564383E2,7.386577E0,6.4404144E0,2.633369E1,3.7633713E1,3.9838278E0,0E0,2.7005005E0,8.84576E0,1.37051525E1,1.3427284E1,3.11969E1,1.1949356E1,0E0,0E0,2.0645154E0,2.0050812E0,4.3811064E0,0E0,7.2352E0,0E0,3.3148956E0,1.0690699E1,1.5755234E1,8.890018E0,3.9266672E0,5.610217E0,1.3136432E0,1.1382701E0,7.538605E-1,2.4787397E0,4.6982145E0,0E0,2.7951984E0,1.3950138E0,6.263199E-1,2.525898E0,5.069412E0,3.1475582E0,2.3037598E1,2.747284E0,7.0272293E0,3.762073E0,2.6037598E-1,0E0,1.2115707E0,0E0,0E0,0E0,0E0,0E0,0E0,0E0,0E0,0E0,0E0,0E0,0E0,0E0,0E0,0E0,0E0,0E0,0E0,0E0,0E0,0E0,0E0,0E0,0E0,0E0,0E0,0E0,0E0,0E0,0E0,0E0,0E0,0E0,0E0,0E0],"parents":[2147483647,0,0,1,1,2,2,3,3,4,4,5,5,6,6,7,7,9,9,10,10,11,11,12,12,13,13,14,14,17,17,18,18,19,19,21,21,23,23,24,24,25,25,26,26,27,27,28,28,29,29,30,30,31,31,32,32,33,33,35,35,36,36,37,37,38,38,39,39,40,40,41,41,42,42,43,43,44,44,45,45,47,47],"right_children":[2,4,6,8,10,12,14,16,-1,18,20,22,24,26,28,-1,-1,30,32,34,-1,36,-1,38,40,42,44,46,48,50,52,54,56,58,-1,60,62,64,66,68,70,72,74,76,78,80,-1,82,-1,-1,-1,-1,-1,-1,-1,-1,-1,-1,-1,-1,-1,-1,-1,-1,-1,-1,-1,-1,-1,-1,-1,-1,-1,-1,-1,-1,-1,-1,-1,-1,-1,-1,-1],"split_conditions":[0E0,1E0,1.1235955E-2,8.5714287E-1,2E0,1E0,1E0,1E0,9.210255E-2,2E0,1E0,1E0,2E0,1.8E1,1E0,-1.0418321E-1,6.291381E-2,1E0,1E0,6E0,1.01404905E-1,1E0,1.030785E-1,1.8018018E-3,3E0,1.8018018E-3,1E0,1E0,1E0,5.9E1,8.888889E-1,1E0,1.5E-1,9.8039216E-1,8.0345295E-2,2.1E1,2.1E1,1.18E2,5.7142857E-2,1E0,1E0,2E0,1.5E1,3E0,1.2903225E-1,0E0,6.388734E-2,4E0,-5.911172E-2,8.672704E-2,-1.4963082E-2,-7.076697E-2,2.9778136E-2,1.0784345E-1,6.819362E-2,8.4146254E-2,-4.540331E-2,-9.306486E-2,7.7095665E-2,-1.09494664E-1,1.0153444E-2,-3.516033E-2,6.1795253E-2,1.1140584E-1,1.4517598E-2,-5.672585E-2,8.017637E-2,-7.053914E-2,7.391325E-2,7.040145E-2,-6.438098E-2,-2.2020405E-3,-8.3645664E-2,-1.0638173E-1,-1.6042069E-2,-3.952389E-2,9.741171E-2,4.4154044E-2,-9.0998076E-2,-1.2252229E-1,-3.0366315E-2,1.0496831E-1,1.9657483E-2],"split_indices":[47,29,27,33,4,29,34,31,0,2,5,34,13,13,29,0,0,39,38,2,0,39,0,33,2,33,39,31,32,3,27,31,27,27,0,13,21,3,33,24,38,13,13,2,27,44,0,4,0,0,0,0,0,0,0,0,0,0,0,0,0,0,0,0,0,0,0,0,0,0,0,0,0,0,0,0,0,0,0,0,0,0,0],"split_type":[0,0,0,0,0,0,0,0,0,0,0,0,0,0,0,0,0,0,0,0,0,0,0,0,0,0,0,0,0,0,0,0,0,0,0,0,0,0,0,0,0,0,0,0,0,0,0,0,0,0,0,0,0,0,0,0,0,0,0,0,0,0,0,0,0,0,0,0,0,0,0,0,0,0,0,0,0,0,0,0,0,0,0],"sum_hessian":[6.726743E2,1.7914226E2,4.9353207E2,9.920263E0,1.69222E2,1.3142413E2,3.6210794E2,5.9918647E0,3.928399E0,1.5009032E2,1.9131672E1,2.7704096E1,1.0372004E2,3.3418887E2,2.7919065E1,4.843963E0,1.1479015E0,9.409471E0,1.4068085E2,1.0000167E1,9.131505E0,2.2713696E1,4.990399E0,6.15118E1,4.220824E1,3.0685974E2,2.7329128E1,5.661521E0,2.2257545E1,6.696564E0,2.7129066E0,1.3663606E2,4.0447874E0,8.056E0,1.9441671E0,1.7651394E1,5.062302E0,5.8069935E1,3.4418623E0,1.301417E1,2.9194073E1,1.6015956E2,1.4670018E2,1.920508E1,8.124047E0,4.654112E0,1.0074089E0,2.0319359E1,1.9381857E0,5.4444838E0,1.2520804E0,1.3521011E0,1.3608055E0,1.2468214E2,1.1953925E1,2.1179936E0,1.9267938E0,6.8187594E0,1.2372397E0,1.5621619E1,2.029775E0,1.4065081E0,3.6557941E0,5.7068317E1,1.0016199E0,1.9618114E0,1.4800508E0,1.0826214E1,2.1879556E0,2.8107574E1,1.0864973E0,5.075187E1,1.094077E2,1.4285626E2,3.8439105E0,4.292166E0,1.4912914E1,2.2285316E0,5.895516E0,3.4422247E0,1.2118874E0,1.792006E1,2.3993E0],"tree_param":{"num_deleted":"0","num_feature":"48","num_nodes":"83","size_leaf_vector":"1"}},{"base_weights":[-1.3954459E-3,8.4930795E-1,-3.0461025E-1,-5.2778605E-2,9.08704E-1,5.1853776E-1,-5.969186E-1,9.113862E-2,-7.164701E-1,3.9866382E-1,1.0012274E0,-4.328947E-1,7.6240116E-1,-6.916684E-1,4.6649447E-1,-1.0189506E0,5.8966596E-2,7.562153E-1,-5.525508E-1,1.021796E0,1.2462037E-1,-7.354802E-1,9.849506E-2,1.0325989E0,3.5804236E-1,-7.7472395E-1,3.3136752E-1,-7.1235627E-1,7.354725E-1,-2.9302705E-2,-1.10084236E-1,-4.8929416E-2,8.596946E-1,-1.3723145E-1,5.25153E-1,1.0417997E0,5.202645E-1,-5.9606213E-2,6.0956728E-2,-1.0199234E0,2.4129282E-1,1.0986463E0,-8.028798E-2,-3.781801E-1,6.630297E-1,-5.5262965E-1,-1.0138274E0,6.562051E-1,-4.4380206E-1,-1.1381258E-1,1.35563165E-2,-3.8542682E-1,8.7252164E-1,1.717166E-2,9.76415E-2,1.5622482E-2,7.082136E-2,5.9408166E-2,1.058838E-1,-6.866955E-2,9.233182E-2,6.2197316E-2,-1.1612721E-1,5.9418518E-2,-5.9209585E-2,1.1125123E-1,4.2489063E-2,-7.0410244E-2,5.0452244E-2,-6.937848E-2,7.751405E-2,3.476496E-2,9.646966E-2,-4.783556E-3,-7.976302E-2,-1.0303378E-1,1.9429019E-2,8.310882E-2,-5.5563778E-2,-6.909652E-2,5.892516E-2,2.4453614E-2,-7.640084E-2,9.3513004E-2,-1.3026099E-2],"categories":[],"categories_nodes":[],"categories_segments":[],"categories_sizes":[],"default_left":[0,0,0,0,0,0,0,0,0,0,0,0,0,0,0,0,0,0,0,0,0,0,0,0,0,0,0,0,0,0,0,0,0,0,0,0,0,0,0,0,0,0,0,0,0,0,0,0,0,0,0,0,0,0,0,0,0,0,0,0,0,0,0,0,0,0,0,0,0,0,0,0,0,0,0,0,0,0,0,0,0,0,0,0,0],"id":18,"left_children":[1,3,5,7,9,11,13,-1,15,17,19,21,23,25,27,29,-1,31,33,35,37,39,-1,41,43,45,47,49,51,-1,-1,-1,53,-1,55,57,59,-1,-1,61,63,65,67,69,71,73,75,77,79,-1,-1,81,83,-1,-1,-1,-1,-1,-1,-1,-1,-1,-1,-1,-1,-1,-1,-1,-1,-1,-1,-1,-1,-1,-1,-1,-1,-1,-1,-1,-1,-1,-1,-1,-1],"loss_changes":[1.6586606E2,9.101341E0,1.143734E2,7.937188E0,7.0845947E0,2.9277393E1,3.5617523E1,0E0,3.4857357E0,9.264841E0,2.2810516E0,1.19183035E1,1.0520004E1,2.7619888E1,9.8001795E0,5.167675E-2,0E0,2.9117222E0,7.5094643E0,7.659302E-1,1.8316221E0,6.3794346E0,0E0,4.440796E0,9.558882E0,1.5272858E1,6.5566187E0,2.299801E0,4.07104E0,0E0,0E0,0E0,1.2944613E0,0E0,1.6241395E-1,3.1973267E-1,4.0383716E0,0E0,0E0,4.734476E0,2.053855E0,5.015564E-2,1.9054606E0,5.1894317E0,2.487897E0,1.9350868E1,3.040207E0,4.263331E0,2.4355984E0,0E0,0E0,9.839407E-1,1.5011158E0,0E0,0E0,0E0,0E0,0E0,0E0,0E0,0E0,0E0,0E0,0E0,0E0,0E0,0E0,0E0,0E0,0E0,0E0,0E0,0E0,0E0,0E0,0E0,0E0,0E0,0E0,0E0,0E0,0E0,0E0,0E0,0E0],"parents":[2147483647,0,0,1,1,2,2,3,3,4,4,5,5,6,6,8,8,9,9,10,10,11,11,12,12,13,13,14,14,15,15,17,17,18,18,19,19,20,20,21,21,23,23,24,24,25,25,26,26,27,27,28,28,32,32,34,34,35,35,36,36,39,39,40,40,41,41,42,42,43,43,44,44,45,45,46,46,47,47,48,48,51,51,52,52],"right_children":[2,4,6,8,10,12,14,-1,16,18,20,22,24,26,28,30,-1,32,34,36,38,40,-1,42,44,46,48,50,52,-1,-1,-1,54,-1,56,58,60,-1,-1,62,64,66,68,70,72,74,76,78,80,-1,-1,82,84,-1,-1,-1,-1,-1,-1,-1,-1,-1,-1,-1,-1,-1,-1,-1,-1,-1,-1,-1,-1,-1,-1,-1,-1,-1,-1,-1,-1,-1,-1,-1,-1],"split_conditions":[0E0,1E0,1.1235955E-2,1E0,1E0,1E0,1E0,9.113862E-2,1E0,5E0,4E1,1E0,2E0,1.8E1,1E0,3.5E1,5.8966596E-2,2E0,1.1E1,4E0,1E0,1E0,9.849506E-2,1.8018018E-3,3E0,1.8018018E-3,1E0,1E0,2E0,-2.9302705E-2,-1.10084236E-1,-4.8929416E-2,2E0,-1.3723145E-1,2.1E1,2E0,1E0,-5.9606213E-2,6.0956728E-2,1E0,1E0,3E0,4.8E1,1E0,1.7E1,2E0,1E0,5E0,1E0,-1.1381258E-1,1.35563165E-2,1.4E1,6E0,1.717166E-2,9.76415E-2,1.5622482E-2,7.082136E-2,5.9408166E-2,1.058838E-1,-6.866955E-2,9.233182E-2,6.2197316E-2,-1.1612721E-1,5.9418518E-2,-5.9209585E-2,1.1125123E-1,4.2489063E-2,-7.0410244E-2,5.0452244E-2,-6.937848E-2,7.751405E-2,3.476496E-2,9.646966E-2,-4.783556E-3,-7.976302E-2,-1.0303378E-1,1.9429019E-2,8.310882E-2,-5.5563778E-2,-6.909652E-2,5.892516E-2,2.4453614E-2,-7.640084E-2,9.3513004E-2,-1.3026099E-2],"split_indices":[47,29,27,14,45,29,34,0,31,13,22,34,13,13,29,3,0,0,13,4,24,39,0,33,2,33,39,28,0,0,0,0,2,0,13,2,5,0,0,14,22,4,3,24,13,13,24,4,28,0,0,21,0,0,0,0,0,0,0,0,0,0,0,0,0,0,0,0,0,0,0,0,0,0,0,0,0,0,0,0,0,0,0,0,0],"split_type":[0,0,0,0,0,0,0,0,0,0,0,0,0,0,0,0,0,0,0,0,0,0,0,0,0,0,0,0,0,0,0,0,0,0,0,0,0,0,0,0,0,0,0,0,0,0,0,0,0,0,0,0,0,0,0,0,0,0,0,0,0,0,0,0,0,0,0,0,0,0,0,0,0,0,0,0,0,0,0,0,0,0,0,0,0],"sum_hessian":[6.410237E2,1.6796838E2,4.7305527E2,1.0383209E1,1.5758517E2,1.2376259E2,3.492927E2,4.0811667E0,6.3020425E0,2.5012297E1,1.3257288E2,2.5091808E1,9.8670784E1,3.2103787E2,2.825481E1,5.295551E0,1.0064917E0,1.8327997E1,6.684298E0,1.2937169E2,3.2011805E0,2.1075342E1,4.016466E0,5.821626E1,4.045452E1,2.9715588E2,2.3882E1,4.94295E0,2.3311861E1,1.0009476E0,4.294603E0,1.1199163E0,1.7208082E1,3.641213E0,3.043085E0,1.2337366E2,5.998038E0,1.1954647E0,2.0057158E0,1.6287989E1,4.7873535E0,5.4966892E1,3.2493672E0,1.1779493E1,2.8675028E1,1.5577423E2,1.4138165E2,1.6937675E1,6.944325E0,3.0627704E0,1.8801793E0,2.3423002E0,2.096956E1,2.8544488E0,1.4353633E1,1.6238633E0,1.4192218E0,5.8378963E0,1.1753576E2,1.3253858E0,4.672652E0,1.0215425E0,1.5266445E1,3.5648632E0,1.2224902E0,5.32204E1,1.7464927E0,1.473552E0,1.7758151E0,9.561459E0,2.2180347E0,1.5071176E1,1.3603852E1,5.1290855E1,1.04483376E2,1.3962071E2,1.7609323E0,1.50762E1,1.8614764E0,5.870841E0,1.0734842E0,1.0121487E0,1.3301514E0,1.9800772E1,1.1687901E0],"tree_param":{"num_deleted":"0","num_feature":"48","num_nodes":"85","size_leaf_vector":"1"}},{"base_weights":[1.5053365E-2,5.468182E-1,-3.0858958E-1,-3.1230432E-1,7.133528E-1,-6.4455104E-1,9.219129E-1,7.8731096E-1,-5.572126E-1,2.7940893E-1,8.8919055E-1,-7.640014E-1,5.1060176E-1,-4.1028064E-1,9.941637E-1,-2.2217961E-2,1.0034966E-1,-8.587949E-1,2.4528703E-1,4.9710053E-1,-4.7046354E-1,9.089113E-1,-4.5914527E-2,-8.3490944E-1,4.0787253E-1,9.297904E-2,9.9794134E-2,-8.5367906E-1,6.0094547E-2,1.0124288E0,-1.444985E-3,-1.033382E0,-1.1352566E-1,7.408734E-1,-9.5206834E-2,-1.9933818E-1,7.13659E-1,-7.60219E-1,5.8995515E-1,9.206304E-1,-2.8748779E-2,-9.49847E-1,-5.145101E-1,6.4795333E-1,-7.944651E-2,-5.577893E-1,9.800457E-2,-2.5999112E-2,-9.975947E-2,2.572859E-1,1.0321599E0,-1.1072147E-1,1.2253039E-2,4.647396E-2,-8.5713714E-2,9.7993374E-2,-7.156146E-4,3.0101297E-2,-9.7384356E-2,8.940558E-2,3.6359802E-3,-9.5331125E-2,5.5074323E-2,7.0924856E-2,1.6077505E-2,1.8252825E-2,9.4293386E-2,-9.8705575E-2,-4.809558E-2,6.097625E-2,-7.0712365E-2,8.503737E-2,-2.604052E-3,3.1793784E-2,-1.02605045E-1,-3.0254845E-2,6.504338E-2,1.04243934E-1,2.0557413E-2],"categories":[],"categories_nodes":[],"categories_segments":[],"categories_sizes":[],"default_left":[0,0,0,0,0,0,0,0,0,0,0,0,0,0,0,0,0,0,0,0,0,0,0,0,0,0,0,0,0,0,0,0,0,0,0,0,0,0,0,0,0,0,0,0,0,0,0,0,0,0,0,0,0,0,0,0,0,0,0,0,0,0,0,0,0,0,0,0,0,0,0,0,0,0,0,0,0,0,0],"id":19,"left_children":[1,3,5,7,9,11,13,15,17,19,21,23,25,27,29,-1,-1,31,33,35,37,39,-1,41,43,45,-1,47,-1,49,-1,51,53,55,-1,57,59,61,63,65,-1,67,69,71,-1,73,-1,-1,-1,75,77,-1,-1,-1,-1,-1,-1,-1,-1,-1,-1,-1,-1,-1,-1,-1,-1,-1,-1,-1,-1,-1,-1,-1,-1,-1,-1,-1,-1],"loss_changes":[1.03826866E2,3.2878334E1,1.5564603E2,1.0606314E1,1.4362793E1,4.1124435E1,8.190041E0,1.8142567E0,7.8254194E0,9.48572E0,4.0285797E0,2.2605606E1,5.6599007E0,2.69537E0,1.4328613E0,0E0,0E0,2.8871937E0,6.266723E0,6.8402834E0,4.5244102E0,2.1461105E0,0E0,8.827774E0,5.121679E0,9.97021E0,0E0,6.503105E-2,0E0,8.6130524E-1,0E0,1.7218037E0,2.7659953E0,1.2929273E0,0E0,4.678248E0,4.133318E0,3.272934E0,6.0549855E-2,2.0194397E0,0E0,2.753128E0,1.53678E1,1.9122624E0,0E0,4.4488688E0,0E0,0E0,0E0,9.138306E-1,4.0911865E-1,0E0,0E0,0E0,0E0,0E0,0E0,0E0,0E0,0E0,0E0,0E0,0E0,0E0,0E0,0E0,0E0,0E0,0E0,0E0,0E0,0E0,0E0,0E0,0E0,0E0,0E0,0E0,0E0],"parents":[2147483647,0,0,1,1,2,2,3,3,4,4,5,5,6,6,7,7,8,8,9,9,10,10,11,11,12,12,13,13,14,14,17,17,18,18,19,19,20,20,21,21,23,23,24,24,25,25,27,27,29,29,31,31,32,32,33,33,35,35,36,36,37,37,38,38,39,39,41,41,42,42,43,43,45,45,49,49,50,50],"right_children":[2,4,6,8,10,12,14,16,18,20,22,24,26,28,30,-1,-1,32,34,36,38,40,-1,42,44,46,-1,48,-1,50,-1,52,54,56,-1,58,60,62,64,66,-1,68,70,72,-1,74,-1,-1,-1,76,78,-1,-1,-1,-1,-1,-1,-1,-1,-1,-1,-1,-1,-1,-1,-1,-1,-1,-1,-1,-1,-1,-1,-1,-1,-1,-1,-1,-1],"split_conditions":[3.6101083E-3,1E0,8.333333E-1,1E0,3E0,1.6666667E-1,1E0,4.1E1,1E0,2.4E1,1E0,1E0,6.666667E-1,1E0,2E0,-2.2217961E-2,1.0034966E-1,6.1E1,1E0,2E0,4E0,4E0,-4.5914527E-2,2.5641027E-1,1E0,3.6842105E-1,9.9794134E-2,1E0,6.0094547E-2,0E0,-1.444985E-3,1.7391305E-1,1.1235955E-2,5.1111114E-1,-9.5206834E-2,5.6E1,5E0,1.8571429E-1,3.4285715E-1,0E0,-2.8748779E-2,1E0,3.2258064E-2,1E0,-7.944651E-2,1.8571429E-1,9.800457E-2,-2.5999112E-2,-9.975947E-2,1E0,8.8E1,-1.1072147E-1,1.2253039E-2,4.647396E-2,-8.5713714E-2,9.7993374E-2,-7.156146E-4,3.0101297E-2,-9.7384356E-2,8.940558E-2,3.6359802E-3,-9.5331125E-2,5.5074323E-2,7.0924856E-2,1.6077505E-2,1.8252825E-2,9.4293386E-2,-9.8705575E-2,-4.809558E-2,6.097625E-2,-7.0712365E-2,8.503737E-2,-2.604052E-3,3.1793784E-2,-1.02605045E-1,-3.0254845E-2,6.504338E-2,1.04243934E-1,2.0557413E-2],"split_indices":[26,29,26,14,2,33,29,3,34,21,38,24,33,31,9,0,0,21,39,2,0,11,0,26,9,26,0,39,0,45,0,33,27,27,0,3,13,33,27,45,0,27,27,39,0,33,0,0,0,28,21,0,0,0,0,0,0,0,0,0,0,0,0,0,0,0,0,0,0,0,0,0,0,0,0,0,0,0,0],"split_type":[0,0,0,0,0,0,0,0,0,0,0,0,0,0,0,0,0,0,0,0,0,0,0,0,0,0,0,0,0,0,0,0,0,0,0,0,0,0,0,0,0,0,0,0,0,0,0,0,0,0,0,0,0,0,0,0,0,0,0,0,0,0,0,0,0,0,0,0,0,0,0,0,0,0,0,0,0,0,0],"sum_hessian":[6.013066E2,2.2724303E2,3.7406354E2,3.6755028E1,1.90488E2,2.9421173E2,7.9851814E1,6.2916036E0,3.0463425E1,5.567606E1,1.3481195E2,2.6694635E2,2.7265392E1,3.8672433E0,7.598457E1,1.1048269E0,5.1867766E0,2.2091288E1,8.372137E0,4.3410786E1,1.2265274E1,1.3318982E2,1.6221265E0,2.5198663E2,1.4959716E1,1.53242E1,1.1941193E1,2.7967386E0,1.0705048E0,7.4629326E1,1.3552514E0,1.7585186E1,4.5061026E0,6.190943E0,2.1811945E0,1.0315688E1,3.3095097E1,9.855414E0,2.4098594E0,1.321261E2,1.0637192E0,1.8401128E2,6.797534E1,1.28541155E1,2.1055999E0,9.053548E0,6.2706513E0,1.0932715E0,1.703467E0,2.2578387E0,7.237148E1,1.6568989E1,1.0161974E0,2.7458396E0,1.7602628E0,4.45664E0,1.7343032E0,6.6384325E0,3.677256E0,2.588158E1,7.213518E0,8.827955E0,1.0274587E0,1.3750806E0,1.034779E0,4.1447597E0,1.2798134E2,1.6945883E2,1.4552448E1,9.625606E0,5.834974E1,9.684022E0,3.1700933E0,3.26621E0,5.7873383E0,1.0265291E0,1.2313097E0,7.12246E1,1.1468861E0],"tree_param":{"num_deleted":"0","num_feature":"48","num_nodes":"79","size_leaf_vector":"1"}},{"base_weights":[5.541796E-4,2.1196248E-1,-7.7672595E-1,3.2842043E-1,-8.633317E-1,-8.936215E-1,9.197239E-1,1.4016351E-1,8.413724E-1,-9.6957487E-1,1.480079E-1,-9.8479956E-1,2.9208797E-1,9.806245E-2,2.5269497E-2,5.9901845E-1,-1.4838849E-1,8.761315E-1,-7.348986E-2,-1.004941E0,-2.897472E-1,9.373128E-2,-5.29517E-1,-1.0327059E0,1.6259453E-1,5.5811906E-1,-6.832829E-2,7.155844E-1,-8.180906E-1,-3.8351446E-1,6.5825236E-1,9.8149383E-1,6.2332404E-1,-6.9167954E-1,-1.1189777E-1,8.159057E-3,-5.7421725E-2,-6.688577E-2,-1.0505377E-2,-1.050869E0,3.7971642E-2,9.080589E-2,-5.056424E-1,-1.1096233E-1,8.366421E-1,-7.692411E-2,7.509547E-2,-1.0684828E-1,7.4369917E-3,-5.2546274E-2,7.267728E-2,1.1585998E-1,-2.5882808E-2,1.00939766E-1,1.9928977E-2,8.311495E-2,2.0733463E-2,-8.93387E-2,-1.4377325E-2,-3.4012884E-2,-1.0833573E-1,9.538974E-3,-8.355378E-2,9.630352E-3,-2.7176691E-2,9.6146874E-2,3.0512774E-2],"categories":[],"categories_nodes":[],"categories_segments":[],"categories_sizes":[],"default_left":[0,0,0,0,0,0,0,0,0,0,0,0,0,0,0,0,0,0,0,0,0,0,0,0,0,0,0,0,0,0,0,0,0,0,0,0,0,0,0,0,0,0,0,0,0,0,0,0,0,0,0,0,0,0,0,0,0,0,0,0,0,0,0,0,0,0,0],"id":20,"left_children":[1,3,5,7,9,11,13,15,17,19,21,23,25,-1,-1,27,29,31,-1,33,35,-1,37,39,41,43,-1,45,47,49,51,53,55,57,-1,-1,-1,-1,-1,59,-1,-1,61,63,65,-1,-1,-1,-1,-1,-1,-1,-1,-1,-1,-1,-1,-1,-1,-1,-1,-1,-1,-1,-1,